{"learner":{"attributes":{},"feature_names":["pitches","velo","VAA","HAA","ext","spin","rel_x","rel_z","plate_x","plate_z","usage","HB","IVB","arsenal_size","fb_usage","fb_velo","fb_HB","fb_IVB","fb_VAA","fb_HAA","fb_ext","fb_spin","fb_rel_x","fb_rel_z","delta_velo_vs_fb","delta_HB_vs_fb","delta_IVB_vs_fb","delta_VAA_vs_fb","delta_HAA_vs_fb","delta_ext_vs_fb","delta_spin_vs_fb","delta_rel_x_vs_fb","delta_rel_z_vs_fb","movdist_vs_fb","shape_dist_vs_fb","second_pitch_usage","max_other_usage","min_movdist_to_other","min_shape_dist_to_other","p_throws_L","p_throws_R","p_throws_nan","fb_pitch_type_FC","fb_pitch_type_FF","fb_pitch_type_SI","fb_pitch_type_nan"],"feature_types":["int","float","float","float","float","float","float","float","float","float","float","float","float","int","float","float","float","float","float","float","float","float","float","float","float","float","float","float","float","float","float","float","float","float","float","float","float","float","float","i","i","i","i","i","i","i"],"gradient_booster":{"model":{"gbtree_model_param":{"num_parallel_tree":"1","num_trees":"1500"},"iteration_indptr":[0,1,2,3,4,5,6,7,8,9,10,11,12,13,14,15,16,17,18,19,20,21,22,23,24,25,26,27,28,29,30,31,32,33,34,35,36,37,38,39,40,41,42,43,44,45,46,47,48,49,50,51,52,53,54,55,56,57,58,59,60,61,62,63,64,65,66,67,68,69,70,71,72,73,74,75,76,77,78,79,80,81,82,83,84,85,86,87,88,89,90,91,92,93,94,95,96,97,98,99,100,101,102,103,104,105,106,107,108,109,110,111,112,113,114,115,116,117,118,119,120,121,122,123,124,125,126,127,128,129,130,131,132,133,134,135,136,137,138,139,140,141,142,143,144,145,146,147,148,149,150,151,152,153,154,155,156,157,158,159,160,161,162,163,164,165,166,167,168,169,170,171,172,173,174,175,176,177,178,179,180,181,182,183,184,185,186,187,188,189,190,191,192,193,194,195,196,197,198,199,200,201,202,203,204,205,206,207,208,209,210,211,212,213,214,215,216,217,218,219,220,221,222,223,224,225,226,227,228,229,230,231,232,233,234,235,236,237,238,239,240,241,242,243,244,245,246,247,248,249,250,251,252,253,254,255,256,257,258,259,260,261,262,263,264,265,266,267,268,269,270,271,272,273,274,275,276,277,278,279,280,281,282,283,284,285,286,287,288,289,290,291,292,293,294,295,296,297,298,299,300,301,302,303,304,305,306,307,308,309,310,311,312,313,314,315,316,317,318,319,320,321,322,323,324,325,326,327,328,329,330,331,332,333,334,335,336,337,338,339,340,341,342,343,344,345,346,347,348,349,350,351,352,353,354,355,356,357,358,359,360,361,362,363,364,365,366,367,368,369,370,371,372,373,374,375,376,377,378,379,380,381,382,383,384,385,386,387,388,389,390,391,392,393,394,395,396,397,398,399,400,401,402,403,404,405,406,407,408,409,410,411,412,413,414,415,416,417,418,419,420,421,422,423,424,425,426,427,428,429,430,431,432,433,434,435,436,437,438,439,440,441,442,443,444,445,446,447,448,449,450,451,452,453,454,455,456,457,458,459,460,461,462,463,464,465,466,467,468,469,470,471,472,473,474,475,476,477,478,479,480,481,482,483,484,485,486,487,488,489,490,491,492,493,494,495,496,497,498,499,500,501,502,503,504,505,506,507,508,509,510,511,512,513,514,515,516,517,518,519,520,521,522,523,524,525,526,527,528,529,530,531,532,533,534,535,536,537,538,539,540,541,542,543,544,545,546,547,548,549,550,551,552,553,554,555,556,557,558,559,560,561,562,563,564,565,566,567,568,569,570,571,572,573,574,575,576,577,578,579,580,581,582,583,584,585,586,587,588,589,590,591,592,593,594,595,596,597,598,599,600,601,602,603,604,605,606,607,608,609,610,611,612,613,614,615,616,617,618,619,620,621,622,623,624,625,626,627,628,629,630,631,632,633,634,635,636,637,638,639,640,641,642,643,644,645,646,647,648,649,650,651,652,653,654,655,656,657,658,659,660,661,662,663,664,665,666,667,668,669,670,671,672,673,674,675,676,677,678,679,680,681,682,683,684,685,686,687,688,689,690,691,692,693,694,695,696,697,698,699,700,701,702,703,704,705,706,707,708,709,710,711,712,713,714,715,716,717,718,719,720,721,722,723,724,725,726,727,728,729,730,731,732,733,734,735,736,737,738,739,740,741,742,743,744,745,746,747,748,749,750,751,752,753,754,755,756,757,758,759,760,761,762,763,764,765,766,767,768,769,770,771,772,773,774,775,776,777,778,779,780,781,782,783,784,785,786,787,788,789,790,791,792,793,794,795,796,797,798,799,800,801,802,803,804,805,806,807,808,809,810,811,812,813,814,815,816,817,818,819,820,821,822,823,824,825,826,827,828,829,830,831,832,833,834,835,836,837,838,839,840,841,842,843,844,845,846,847,848,849,850,851,852,853,854,855,856,857,858,859,860,861,862,863,864,865,866,867,868,869,870,871,872,873,874,875,876,877,878,879,880,881,882,883,884,885,886,887,888,889,890,891,892,893,894,895,896,897,898,899,900,901,902,903,904,905,906,907,908,909,910,911,912,913,914,915,916,917,918,919,920,921,922,923,924,925,926,927,928,929,930,931,932,933,934,935,936,937,938,939,940,941,942,943,944,945,946,947,948,949,950,951,952,953,954,955,956,957,958,959,960,961,962,963,964,965,966,967,968,969,970,971,972,973,974,975,976,977,978,979,980,981,982,983,984,985,986,987,988,989,990,991,992,993,994,995,996,997,998,999,1000,1001,1002,1003,1004,1005,1006,1007,1008,1009,1010,1011,1012,1013,1014,1015,1016,1017,1018,1019,1020,1021,1022,1023,1024,1025,1026,1027,1028,1029,1030,1031,1032,1033,1034,1035,1036,1037,1038,1039,1040,1041,1042,1043,1044,1045,1046,1047,1048,1049,1050,1051,1052,1053,1054,1055,1056,1057,1058,1059,1060,1061,1062,1063,1064,1065,1066,1067,1068,1069,1070,1071,1072,1073,1074,1075,1076,1077,1078,1079,1080,1081,1082,1083,1084,1085,1086,1087,1088,1089,1090,1091,1092,1093,1094,1095,1096,1097,1098,1099,1100,1101,1102,1103,1104,1105,1106,1107,1108,1109,1110,1111,1112,1113,1114,1115,1116,1117,1118,1119,1120,1121,1122,1123,1124,1125,1126,1127,1128,1129,1130,1131,1132,1133,1134,1135,1136,1137,1138,1139,1140,1141,1142,1143,1144,1145,1146,1147,1148,1149,1150,1151,1152,1153,1154,1155,1156,1157,1158,1159,1160,1161,1162,1163,1164,1165,1166,1167,1168,1169,1170,1171,1172,1173,1174,1175,1176,1177,1178,1179,1180,1181,1182,1183,1184,1185,1186,1187,1188,1189,1190,1191,1192,1193,1194,1195,1196,1197,1198,1199,1200,1201,1202,1203,1204,1205,1206,1207,1208,1209,1210,1211,1212,1213,1214,1215,1216,1217,1218,1219,1220,1221,1222,1223,1224,1225,1226,1227,1228,1229,1230,1231,1232,1233,1234,1235,1236,1237,1238,1239,1240,1241,1242,1243,1244,1245,1246,1247,1248,1249,1250,1251,1252,1253,1254,1255,1256,1257,1258,1259,1260,1261,1262,1263,1264,1265,1266,1267,1268,1269,1270,1271,1272,1273,1274,1275,1276,1277,1278,1279,1280,1281,1282,1283,1284,1285,1286,1287,1288,1289,1290,1291,1292,1293,1294,1295,1296,1297,1298,1299,1300,1301,1302,1303,1304,1305,1306,1307,1308,1309,1310,1311,1312,1313,1314,1315,1316,1317,1318,1319,1320,1321,1322,1323,1324,1325,1326,1327,1328,1329,1330,1331,1332,1333,1334,1335,1336,1337,1338,1339,1340,1341,1342,1343,1344,1345,1346,1347,1348,1349,1350,1351,1352,1353,1354,1355,1356,1357,1358,1359,1360,1361,1362,1363,1364,1365,1366,1367,1368,1369,1370,1371,1372,1373,1374,1375,1376,1377,1378,1379,1380,1381,1382,1383,1384,1385,1386,1387,1388,1389,1390,1391,1392,1393,1394,1395,1396,1397,1398,1399,1400,1401,1402,1403,1404,1405,1406,1407,1408,1409,1410,1411,1412,1413,1414,1415,1416,1417,1418,1419,1420,1421,1422,1423,1424,1425,1426,1427,1428,1429,1430,1431,1432,1433,1434,1435,1436,1437,1438,1439,1440,1441,1442,1443,1444,1445,1446,1447,1448,1449,1450,1451,1452,1453,1454,1455,1456,1457,1458,1459,1460,1461,1462,1463,1464,1465,1466,1467,1468,1469,1470,1471,1472,1473,1474,1475,1476,1477,1478,1479,1480,1481,1482,1483,1484,1485,1486,1487,1488,1489,1490,1491,1492,1493,1494,1495,1496,1497,1498,1499,1500],"tree_info":[0,0,0,0,0,0,0,0,0,0,0,0,0,0,0,0,0,0,0,0,0,0,0,0,0,0,0,0,0,0,0,0,0,0,0,0,0,0,0,0,0,0,0,0,0,0,0,0,0,0,0,0,0,0,0,0,0,0,0,0,0,0,0,0,0,0,0,0,0,0,0,0,0,0,0,0,0,0,0,0,0,0,0,0,0,0,0,0,0,0,0,0,0,0,0,0,0,0,0,0,0,0,0,0,0,0,0,0,0,0,0,0,0,0,0,0,0,0,0,0,0,0,0,0,0,0,0,0,0,0,0,0,0,0,0,0,0,0,0,0,0,0,0,0,0,0,0,0,0,0,0,0,0,0,0,0,0,0,0,0,0,0,0,0,0,0,0,0,0,0,0,0,0,0,0,0,0,0,0,0,0,0,0,0,0,0,0,0,0,0,0,0,0,0,0,0,0,0,0,0,0,0,0,0,0,0,0,0,0,0,0,0,0,0,0,0,0,0,0,0,0,0,0,0,0,0,0,0,0,0,0,0,0,0,0,0,0,0,0,0,0,0,0,0,0,0,0,0,0,0,0,0,0,0,0,0,0,0,0,0,0,0,0,0,0,0,0,0,0,0,0,0,0,0,0,0,0,0,0,0,0,0,0,0,0,0,0,0,0,0,0,0,0,0,0,0,0,0,0,0,0,0,0,0,0,0,0,0,0,0,0,0,0,0,0,0,0,0,0,0,0,0,0,0,0,0,0,0,0,0,0,0,0,0,0,0,0,0,0,0,0,0,0,0,0,0,0,0,0,0,0,0,0,0,0,0,0,0,0,0,0,0,0,0,0,0,0,0,0,0,0,0,0,0,0,0,0,0,0,0,0,0,0,0,0,0,0,0,0,0,0,0,0,0,0,0,0,0,0,0,0,0,0,0,0,0,0,0,0,0,0,0,0,0,0,0,0,0,0,0,0,0,0,0,0,0,0,0,0,0,0,0,0,0,0,0,0,0,0,0,0,0,0,0,0,0,0,0,0,0,0,0,0,0,0,0,0,0,0,0,0,0,0,0,0,0,0,0,0,0,0,0,0,0,0,0,0,0,0,0,0,0,0,0,0,0,0,0,0,0,0,0,0,0,0,0,0,0,0,0,0,0,0,0,0,0,0,0,0,0,0,0,0,0,0,0,0,0,0,0,0,0,0,0,0,0,0,0,0,0,0,0,0,0,0,0,0,0,0,0,0,0,0,0,0,0,0,0,0,0,0,0,0,0,0,0,0,0,0,0,0,0,0,0,0,0,0,0,0,0,0,0,0,0,0,0,0,0,0,0,0,0,0,0,0,0,0,0,0,0,0,0,0,0,0,0,0,0,0,0,0,0,0,0,0,0,0,0,0,0,0,0,0,0,0,0,0,0,0,0,0,0,0,0,0,0,0,0,0,0,0,0,0,0,0,0,0,0,0,0,0,0,0,0,0,0,0,0,0,0,0,0,0,0,0,0,0,0,0,0,0,0,0,0,0,0,0,0,0,0,0,0,0,0,0,0,0,0,0,0,0,0,0,0,0,0,0,0,0,0,0,0,0,0,0,0,0,0,0,0,0,0,0,0,0,0,0,0,0,0,0,0,0,0,0,0,0,0,0,0,0,0,0,0,0,0,0,0,0,0,0,0,0,0,0,0,0,0,0,0,0,0,0,0,0,0,0,0,0,0,0,0,0,0,0,0,0,0,0,0,0,0,0,0,0,0,0,0,0,0,0,0,0,0,0,0,0,0,0,0,0,0,0,0,0,0,0,0,0,0,0,0,0,0,0,0,0,0,0,0,0,0,0,0,0,0,0,0,0,0,0,0,0,0,0,0,0,0,0,0,0,0,0,0,0,0,0,0,0,0,0,0,0,0,0,0,0,0,0,0,0,0,0,0,0,0,0,0,0,0,0,0,0,0,0,0,0,0,0,0,0,0,0,0,0,0,0,0,0,0,0,0,0,0,0,0,0,0,0,0,0,0,0,0,0,0,0,0,0,0,0,0,0,0,0,0,0,0,0,0,0,0,0,0,0,0,0,0,0,0,0,0,0,0,0,0,0,0,0,0,0,0,0,0,0,0,0,0,0,0,0,0,0,0,0,0,0,0,0,0,0,0,0,0,0,0,0,0,0,0,0,0,0,0,0,0,0,0,0,0,0,0,0,0,0,0,0,0,0,0,0,0,0,0,0,0,0,0,0,0,0,0,0,0,0,0,0,0,0,0,0,0,0,0,0,0,0,0,0,0,0,0,0,0,0,0,0,0,0,0,0,0,0,0,0,0,0,0,0,0,0,0,0,0,0,0,0,0,0,0,0,0,0,0,0,0,0,0,0,0,0,0,0,0,0,0,0,0,0,0,0,0,0,0,0,0,0,0,0,0,0,0,0,0,0,0,0,0,0,0,0,0,0,0,0,0,0,0,0,0,0,0,0,0,0,0,0,0,0,0,0,0,0,0,0,0,0,0,0,0,0,0,0,0,0,0,0,0,0,0,0,0,0,0,0,0,0,0,0,0,0,0,0,0,0,0,0,0,0,0,0,0,0,0,0,0,0,0,0,0,0,0,0,0,0,0,0,0,0,0,0,0,0,0,0,0,0,0,0,0,0,0,0,0,0,0,0,0,0,0,0,0,0,0,0,0,0,0,0,0,0,0,0,0,0,0,0,0,0,0,0,0,0,0,0,0,0,0,0,0,0,0,0,0,0,0,0,0,0,0,0,0,0,0,0,0,0,0,0,0,0,0,0,0,0,0,0,0,0,0,0,0,0,0,0,0,0,0,0,0,0,0,0,0,0,0,0,0,0,0,0,0,0,0,0,0,0,0,0,0,0,0,0,0,0,0,0,0,0,0,0,0,0,0,0,0,0,0,0,0,0,0,0,0,0,0,0,0,0,0,0,0,0,0,0,0,0,0,0,0,0,0,0,0,0,0,0,0,0,0,0,0,0,0,0,0,0,0,0,0,0,0,0,0,0,0,0,0,0,0,0,0,0,0,0,0,0,0,0,0,0,0,0,0,0,0,0,0,0,0,0,0,0,0,0,0,0,0,0,0,0,0,0,0,0,0,0,0,0,0,0,0,0,0,0,0,0,0,0,0,0,0,0,0,0,0,0,0,0,0,0,0,0,0,0,0,0,0,0,0,0,0,0,0,0,0,0,0,0,0,0,0,0,0,0,0,0,0,0,0,0,0,0,0,0,0,0,0,0,0,0,0,0,0,0,0,0,0,0,0,0,0,0,0,0,0,0,0,0,0,0,0,0,0,0,0,0,0,0,0,0,0,0,0,0,0,0,0,0,0,0,0,0,0,0,0,0,0,0,0,0,0,0,0,0,0,0,0,0,0,0,0,0,0,0,0,0,0,0,0],"trees":[{"base_weights":[4.864114E-4,1.3186893E-1,-2.1367192E-2,7.12989E-2,2.1294537E-1,-7.175949E-2,-4.249813E-3,1.9221771E-1,3.979404E-2,1.7078048E-1,2.4180798E-1,-9.60191E-2,-3.257298E-2,-1.0118335E-2,1.256397E-1,7.3882365E-3,4.7522304E-3,7.436658E-2,-2.617976E-3,4.5507927E-3,5.894601E-3,6.937259E-3,7.840996E-3,3.9738123E-3,-1.035535E-1,-7.902034E-2,5.2914318E-2,-6.765351E-2,9.358198E-5,1.7044254E-1,9.064047E-2,2.8179681E-3,1.1205914E-3,-2.0414258E-3,9.005835E-5,-7.0251117E-4,2.0152451E-4,-4.1948953E-3,-2.7013994E-3,-9.206146E-4,-3.5616425E-3,-3.4572868E-4,2.0270667E-3,1.5103413E-3,-2.4417315E-3,-1.2612933E-3,4.065029E-4,6.4587304E-3,4.8846486E-3,1.9586182E-3,3.235094E-3],"categories":[],"categories_nodes":[],"categories_segments":[],"categories_sizes":[],"default_left":[0,0,0,0,0,0,0,0,0,0,0,0,0,0,0,0,0,0,0,0,0,0,0,0,0,0,0,0,0,0,0,0,0,0,0,0,0,0,0,0,0,0,0,0,0,0,0,0,0,0,0],"id":0,"left_children":[1,3,5,7,9,11,13,15,17,19,21,23,25,27,29,-1,-1,31,33,-1,-1,-1,-1,35,37,39,41,43,45,47,49,-1,-1,-1,-1,-1,-1,-1,-1,-1,-1,-1,-1,-1,-1,-1,-1,-1,-1,-1,-1],"loss_changes":[1.0958145E2,2.671431E1,2.8226036E1,1.1866657E1,2.7906342E0,7.884411E0,1.8620983E1,1.1380024E0,3.627798E0,4.3583488E-1,2.2454071E-1,3.8607635E0,1.2607056E1,1.3732094E1,1.6404266E0,0E0,0E0,9.835701E-1,4.0909654E-1,0E0,0E0,0E0,0E0,2.7211845E-2,2.3221588E0,3.943492E0,1.0565286E0,5.714901E0,1.1255779E1,1.2285137E-1,2.5236416E-1,0E0,0E0,0E0,0E0,0E0,0E0,0E0,0E0,0E0,0E0,0E0,0E0,0E0,0E0,0E0,0E0,0E0,0E0,0E0,0E0],"parents":[2147483647,0,0,1,1,2,2,3,3,4,4,5,5,6,6,7,7,8,8,9,9,10,10,11,11,12,12,13,13,14,14,17,17,18,18,23,23,24,24,25,25,26,26,27,27,28,28,29,29,30,30],"right_children":[2,4,6,8,10,12,14,16,18,20,22,24,26,28,30,-1,-1,32,34,-1,-1,-1,-1,36,38,40,42,44,46,48,50,-1,-1,-1,-1,-1,-1,-1,-1,-1,-1,-1,-1,-1,-1,-1,-1,-1,-1,-1,-1],"split_conditions":[9.055162E2,5.2939102E-2,1.7029945E1,-2.0502959E-1,4.01E2,6.3632355E0,1.9476355E1,2.49E2,7.708825E2,3.81E2,8.1512E1,5.920548E0,7.639536E-1,-4.367744E0,2.24E2,7.3882365E-3,4.7522304E-3,1.6416273E0,8.8E1,4.5507927E-3,5.894601E-3,6.937259E-3,7.840996E-3,3.3E1,5.268718E0,6.5004992E0,1.41E2,7.9E1,-1.13796026E-1,6.4E1,2.43E2,2.8179681E-3,1.1205914E-3,-2.0414258E-3,9.005835E-5,-7.0251117E-4,2.0152451E-4,-4.1948953E-3,-2.7013994E-3,-9.206146E-4,-3.5616425E-3,-3.4572868E-4,2.0270667E-3,1.5103413E-3,-2.4417315E-3,-1.2612933E-3,4.065029E-4,6.4587304E-3,4.8846486E-3,1.9586182E-3,3.235094E-3],"split_indices":[5,32,34,31,0,20,17,0,5,0,1,4,25,25,0,0,0,3,0,0,0,0,0,0,17,20,0,0,31,0,0,0,0,0,0,0,0,0,0,0,0,0,0,0,0,0,0,0,0,0,0],"split_type":[0,0,0,0,0,0,0,0,0,0,0,0,0,0,0,0,0,0,0,0,0,0,0,0,0,0,0,0,0,0,0,0,0,0,0,0,0,0,0,0,0,0,0,0,0,0,0,0,0,0,0],"sum_hessian":[3.8164E4,5.442E3,3.2722E4,3.116E3,2.326E3,8.296E3,2.4426E4,6.43E2,2.473E3,9.48E2,1.378E3,5.123E3,3.173E3,2.3371E4,1.055E3,2.45E2,3.98E2,1.362E3,1.111E3,5.48E2,4E2,9.03E2,4.75E2,3.59E2,4.764E3,2.056E3,1.117E3,3.522E3,1.9849E4,4.61E2,5.94E2,8.9E2,4.72E2,8.7E1,1.024E3,3.2E1,3.27E2,1.29E3,3.474E3,9.28E2,1.128E3,2.07E2,9.1E2,3.67E2,3.155E3,4.804E3,1.5045E4,6.3E1,3.98E2,2.42E2,3.52E2],"tree_param":{"num_deleted":"0","num_feature":"46","num_nodes":"51","size_leaf_vector":"1"}},{"base_weights":[9.823866E-4,1.2799425E-1,-2.0435745E-2,3.675779E-2,1.7073777E-1,-7.942339E-2,3.202739E-3,6.5195146E-3,1.1089295E-1,1.9521943E-1,6.0011514E-2,4.799381E-2,-8.696559E-2,3.5258956E-2,-2.5109915E-2,1.3853179E-3,-4.6556424E-3,8.640379E-2,4.4770255E-3,2.3960616E-1,1.639165E-1,2.042752E-2,2.5443395E-3,5.612224E-3,2.5858805E-3,-1.0049131E-1,-2.0821294E-2,2.1020176E-2,7.151957E-2,-4.4966213E-2,1.0136078E-1,-1.980879E-3,5.0220802E-5,2.143366E-3,2.662348E-3,7.467104E-3,6.7732646E-3,4.479024E-3,5.3814305E-3,1.8684442E-4,7.0365E-4,2.6574667E-4,1.2588315E-4,-2.8344945E-3,-5.3192135E-3,1.5759333E-3,-2.770245E-3,1.3246152E-3,-1.2803105E-4,4.445826E-4,2.4911172E-3,-3.0819534E-3,-9.0968626E-4,1.5945799E-3,4.1874032E-3],"categories":[],"categories_nodes":[],"categories_segments":[],"categories_sizes":[],"default_left":[0,0,0,0,0,0,0,0,0,0,0,0,0,0,0,0,0,0,0,0,0,0,0,0,0,0,0,0,0,0,0,0,0,0,0,0,0,0,0,0,0,0,0,0,0,0,0,0,0,0,0,0,0,0,0],"id":1,"left_children":[1,3,5,7,9,11,13,15,17,19,21,23,25,27,29,-1,31,33,-1,35,37,39,-1,41,-1,43,45,47,49,51,53,-1,-1,-1,-1,-1,-1,-1,-1,-1,-1,-1,-1,-1,-1,-1,-1,-1,-1,-1,-1,-1,-1,-1,-1],"loss_changes":[1.00087265E2,2.0697594E1,4.3899475E1,3.7989914E0,9.787689E0,8.65995E0,2.0400934E1,5.342487E-1,4.4812727E-1,4.073448E0,6.4224625E-1,8.1552756E-1,7.606003E0,5.4414034E0,2.9978714E1,0E0,3.6566547E-1,4.235506E-3,0E0,1.0094452E-1,3.6627197E-1,1.0772958E-2,0E0,1.0660426E-3,0E0,3.2415848E0,7.5855813E0,4.429234E0,1.9396458E0,8.723835E0,2.9774017E0,0E0,0E0,0E0,0E0,0E0,0E0,0E0,0E0,0E0,0E0,0E0,0E0,0E0,0E0,0E0,0E0,0E0,0E0,0E0,0E0,0E0,0E0,0E0,0E0],"parents":[2147483647,0,0,1,1,2,2,3,3,4,4,5,5,6,6,7,7,8,8,9,9,10,10,11,11,12,12,13,13,14,14,16,16,17,17,19,19,20,20,21,21,23,23,25,25,26,26,27,27,28,28,29,29,30,30],"right_children":[2,4,6,8,10,12,14,16,18,20,22,24,26,28,30,-1,32,34,-1,36,38,40,-1,42,-1,44,46,48,50,52,54,-1,-1,-1,-1,-1,-1,-1,-1,-1,-1,-1,-1,-1,-1,-1,-1,-1,-1,-1,-1,-1,-1,-1,-1],"split_conditions":[9.055162E2,-7.3155556E0,1.7081156E1,1.737461E0,1.71E0,1.1039129E1,1.709102E0,7.317228E2,8.596607E1,-4.8116207E0,6.7865625E2,1.7E2,2.6981581E-3,2.1488577E1,9.616364E0,1.3853179E-3,8.8E1,4.6E1,4.4770255E-3,4.79E2,3.99E2,4.6E1,2.5443395E-3,7.3E1,2.5858805E-3,3.799508E0,5.6773777E0,5.5349836E0,-1.7236511E-1,1.9269062E1,9.852941E-2,-1.980879E-3,5.0220802E-5,2.143366E-3,2.662348E-3,7.467104E-3,6.7732646E-3,4.479024E-3,5.3814305E-3,1.8684442E-4,7.0365E-4,2.6574667E-4,1.2588315E-4,-2.8344945E-3,-5.3192135E-3,1.5759333E-3,-2.770245E-3,1.3246152E-3,-1.2803105E-4,4.445826E-4,2.4911172E-3,-3.0819534E-3,-9.0968626E-4,1.5945799E-3,4.1874032E-3],"split_indices":[5,11,34,12,9,34,9,5,1,2,5,0,31,34,12,0,0,0,0,0,0,0,0,0,0,25,7,7,31,34,29,0,0,0,0,0,0,0,0,0,0,0,0,0,0,0,0,0,0,0,0,0,0,0,0],"split_type":[0,0,0,0,0,0,0,0,0,0,0,0,0,0,0,0,0,0,0,0,0,0,0,0,0,0,0,0,0,0,0,0,0,0,0,0,0,0,0,0,0,0,0,0,0,0,0,0,0,0,0,0,0,0,0],"sum_hessian":[3.679E4,5.308E3,3.1482E4,1.694E3,3.614E3,9.006E3,2.2476E4,1.204E3,4.9E2,2.959E3,6.55E2,5.03E2,8.503E3,1.0541E4,1.1935E4,2.64E2,9.4E2,3.01E2,1.89E2,1.221E3,1.738E3,2.53E2,4.02E2,2.39E2,2.64E2,7.059E3,1.444E3,7.57E3,2.971E3,1.0316E4,1.619E3,8.7E1,8.53E2,4.5E1,2.56E2,7.2E2,5.01E2,8.99E2,8.39E2,4.5E1,2.08E2,7.1E1,1.68E2,6.549E3,5.1E2,7.13E2,7.31E2,3.953E3,3.617E3,5.02E2,2.469E3,2.085E3,8.231E3,7.17E2,9.02E2],"tree_param":{"num_deleted":"0","num_feature":"46","num_nodes":"55","size_leaf_vector":"1"}},{"base_weights":[1.5457951E-3,1.4473918E-1,-1.9353524E-2,1.8305847E-1,5.620321E-2,2.9224785E-2,-4.739355E-2,1.3949203E-1,2.1910177E-1,4.2920406E-3,2.9423483E-2,-6.004449E-2,3.87896E-2,-6.547701E-2,4.948448E-2,2.5341546E-3,1.5224573E-1,5.5571636E-3,2.2878991E-1,4.574267E-2,5.5282153E-3,-5.125299E-2,-3.6002405E-3,1.9677555E-2,8.0509916E-2,-8.045216E-2,-4.5930217E-3,6.670876E-2,-7.173073E-2,4.3675667E-3,4.9012015E-3,7.3827174E-3,6.582815E-3,2.2533853E-3,1.0545653E-3,2.697494E-4,9.8543635E-5,-1.7684834E-3,-1.7041137E-4,-4.8627134E-4,1.1538545E-3,6.5099366E-4,2.7934932E-3,-2.8643988E-3,-1.1172289E-3,-2.6651723E-3,4.8429877E-4,4.5657665E-3,1.4504573E-3,-2.514654E-3,-1.5873166E-3],"categories":[],"categories_nodes":[],"categories_segments":[],"categories_sizes":[],"default_left":[0,0,0,0,0,0,0,0,0,0,0,0,0,0,0,0,0,0,0,0,0,0,0,0,0,0,0,0,0,0,0,0,0,0,0,0,0,0,0,0,0,0,0,0,0,0,0,0,0,0,0],"id":2,"left_children":[1,3,5,7,9,11,13,15,17,-1,19,21,23,25,27,-1,29,-1,31,33,35,37,-1,39,41,43,45,47,49,-1,-1,-1,-1,-1,-1,-1,-1,-1,-1,-1,-1,-1,-1,-1,-1,-1,-1,-1,-1,-1,-1],"loss_changes":[1.095665E2,1.5809578E1,4.3520298E1,5.0791245E0,3.2757554E0,9.986329E0,3.5491295E1,1.0228653E0,5.412445E-1,0E0,4.205047E-1,5.906043E-1,8.420139E0,1.5564056E1,6.6587443E0,0E0,6.492615E-2,0E0,1.6938019E-1,1.9673908E-1,3.3814767E-3,3.4655452E-1,0E0,4.8845024E0,2.4579163E0,8.893448E0,5.890412E0,4.3730927E0,8.59046E-2,0E0,0E0,0E0,0E0,0E0,0E0,0E0,0E0,0E0,0E0,0E0,0E0,0E0,0E0,0E0,0E0,0E0,0E0,0E0,0E0,0E0,0E0],"parents":[2147483647,0,0,1,1,2,2,3,3,4,4,5,5,6,6,7,7,8,8,10,10,11,11,12,12,13,13,14,14,16,16,18,18,19,19,20,20,21,21,23,23,24,24,25,25,26,26,27,27,28,28],"right_children":[2,4,6,8,10,12,14,16,18,-1,20,22,24,26,28,-1,30,-1,32,34,36,38,-1,40,42,44,46,48,50,-1,-1,-1,-1,-1,-1,-1,-1,-1,-1,-1,-1,-1,-1,-1,-1,-1,-1,-1,-1,-1,-1],"split_conditions":[8.871494E2,3.615752E-1,1.6925238E0,1.0538293E0,5.789213E0,-5.2974415E0,6.9405193E0,7.3156136E-1,1.2053242E0,4.2920406E-3,7.317228E2,6.7622375E0,2.3173223E3,1.6705212E-3,1.9446528E0,2.5341546E-3,-2.8909722E-1,5.5571636E-3,1.2328407E0,1.6416273E0,9.306808E-1,-1.326673E0,-3.6002405E-3,6.358774E0,-3.1785122E-1,6.593176E0,9.54939E0,6.928775E-1,1.6627245E0,4.3675667E-3,4.9012015E-3,7.3827174E-3,6.582815E-3,2.2533853E-3,1.0545653E-3,2.697494E-4,9.8543635E-5,-1.7684834E-3,-1.7041137E-4,-4.8627134E-4,1.1538545E-3,6.5099366E-4,2.7934932E-3,-2.8643988E-3,-1.1172289E-3,-2.6651723E-3,4.8429877E-4,4.5657665E-3,1.4504573E-3,-2.514654E-3,-1.5873166E-3],"split_indices":[5,14,9,3,23,25,12,3,3,0,5,4,21,32,9,0,8,0,3,3,3,27,0,20,28,4,33,3,3,0,0,0,0,0,0,0,0,0,0,0,0,0,0,0,0,0,0,0,0,0,0],"split_type":[0,0,0,0,0,0,0,0,0,0,0,0,0,0,0,0,0,0,0,0,0,0,0,0,0,0,0,0,0,0,0,0,0,0,0,0,0,0,0,0,0,0,0,0,0,0,0,0,0,0,0],"sum_hessian":[3.661E4,4.662E3,3.1948E4,3.253E3,1.409E3,1.1692E4,2.0256E4,1.475E3,1.778E3,3.31E2,1.078E3,1.131E3,1.0561E4,1.707E4,3.186E3,2.79E2,1.196E3,4E2,1.378E3,6.4E2,4.38E2,9.88E2,1.43E2,7.244E3,3.317E3,1.37E4,3.37E3,2.79E3,3.96E2,7.57E2,4.39E2,4.75E2,9.03E2,1.68E2,4.72E2,1.71E2,2.67E2,8.45E2,1.43E2,2.489E3,4.755E3,5.86E2,2.731E3,1.0164E4,3.536E3,6.65E2,2.705E3,4.92E2,2.298E3,2.39E2,1.57E2],"tree_param":{"num_deleted":"0","num_feature":"46","num_nodes":"51","size_leaf_vector":"1"}},{"base_weights":[-1.188971E-3,1.8210919E-1,-1.4118576E-2,2.2193633E-1,1.331281E-1,2.4095193E-2,-4.2980466E-2,6.3855485E-3,7.161701E-3,1.5210082E-1,1.0606997E-1,-5.1957287E-2,3.315685E-2,-5.2839663E-2,7.0530616E-2,4.159334E-3,4.754499E-3,2.6735112E-3,3.6399183E-3,-7.782943E-2,3.7009623E-2,1.33635E-2,5.8423918E-2,-3.6691397E-2,-1.0140529E-1,4.1678432E-2,1.6930431E-1,-1.4289324E-3,-4.1433815E-3,1.3663115E-4,1.9315843E-3,1.4664099E-3,-1.3286641E-4,6.3782145E-4,2.723007E-3,-2.349706E-3,-6.592119E-4,-4.4791754E-3,-2.7335114E-3,1.7764634E-3,-2.4331256E-4,7.159038E-3,4.86465E-3],"categories":[],"categories_nodes":[],"categories_segments":[],"categories_sizes":[],"default_left":[0,0,0,0,0,0,0,0,0,0,0,0,0,0,0,0,0,0,0,0,0,0,0,0,0,0,0,0,0,0,0,0,0,0,0,0,0,0,0,0,0,0,0],"id":3,"left_children":[1,3,5,7,9,11,13,-1,-1,15,17,19,21,23,25,-1,-1,-1,-1,27,29,31,33,35,37,39,41,-1,-1,-1,-1,-1,-1,-1,-1,-1,-1,-1,-1,-1,-1,-1,-1],"loss_changes":[9.0028366E1,4.8532486E0,3.9137108E1,1.5948486E-1,5.614052E-1,1.05245285E1,2.2628021E1,0E0,0E0,3.46241E-2,1.1000633E-1,3.7455492E0,6.822855E0,1.4584129E1,4.598281E0,0E0,0E0,0E0,0E0,2.2871952E0,3.257907E-1,4.8357368E0,7.2014694E0,8.552574E0,2.2735367E0,1.0936613E0,1.4222145E-1,0E0,0E0,0E0,0E0,0E0,0E0,0E0,0E0,0E0,0E0,0E0,0E0,0E0,0E0,0E0,0E0],"parents":[2147483647,0,0,1,1,2,2,3,3,4,4,5,5,6,6,9,9,10,10,11,11,12,12,13,13,14,14,19,19,20,20,21,21,22,22,23,23,24,24,25,25,26,26],"right_children":[2,4,6,8,10,12,14,-1,-1,16,18,20,22,24,26,-1,-1,-1,-1,28,30,32,34,36,38,40,42,-1,-1,-1,-1,-1,-1,-1,-1,-1,-1,-1,-1,-1,-1,-1,-1],"split_conditions":[-1.1428396E1,8.182802E1,1.6925238E0,8.1512E1,8.378636E1,1.6733444E1,8.374857E0,6.3855485E-3,7.161701E-3,2.24E2,2.26E2,-4.156715E0,6.4429708E0,-5.0658073E0,9.852941E-2,4.159334E-3,4.754499E-3,2.6735112E-3,3.6399183E-3,-2.2584293E0,1.7E2,-4.662433E0,-2.0228825E0,8.4104614E1,8.73375E1,8.309498E1,3.2E1,-1.4289324E-3,-4.1433815E-3,1.3663115E-4,1.9315843E-3,1.4664099E-3,-1.3286641E-4,6.3782145E-4,2.723007E-3,-2.349706E-3,-6.592119E-4,-4.4791754E-3,-2.7335114E-3,1.7764634E-3,-2.4331256E-4,7.159038E-3,4.86465E-3],"split_indices":[24,1,9,1,1,34,12,0,0,0,0,2,20,24,29,0,0,0,0,22,0,2,6,1,1,1,0,0,0,0,0,0,0,0,0,0,0,0,0,0,0,0,0],"split_type":[0,0,0,0,0,0,0,0,0,0,0,0,0,0,0,0,0,0,0,0,0,0,0,0,0,0,0,0,0,0,0,0,0,0,0,0,0,0,0,0,0,0,0],"sum_hessian":[3.7985E4,2.502E3,3.5483E4,1.378E3,1.124E3,1.5268E4,2.0215E4,9.03E2,4.75E2,6.58E2,4.66E2,1.625E3,1.3643E4,1.86E4,1.615E3,2.19E2,4.39E2,2.24E2,2.42E2,1.259E3,3.66E2,7.651E3,5.992E3,1.396E4,4.64E3,1.251E3,3.64E2,8.4E2,4.19E2,1.68E2,1.98E2,2.553E3,5.098E3,2.789E3,3.203E3,3.645E3,1.0315E4,8.18E2,3.822E3,9.25E2,3.26E2,3.1E1,3.33E2],"tree_param":{"num_deleted":"0","num_feature":"46","num_nodes":"43","size_leaf_vector":"1"}},{"base_weights":[-3.715976E-3,1.6007367E-1,-1.4006053E-2,1.1868509E-1,2.1870959E-1,2.411797E-2,-4.1431714E-2,2.0045952E-3,1.2957913E-1,6.9473013E-3,6.1821956E-3,1.7074378E-3,6.26768E-2,-5.859672E-2,3.3512786E-2,4.17158E-3,3.5480037E-3,2.0993996E-2,-5.4035902E-2,4.0304594E-2,1.0671182E-1,-9.325325E-2,-3.2853786E-2,5.550119E-2,-6.496351E-2,8.163112E-4,-2.012922E-3,-8.971804E-4,-3.476955E-3,5.7015254E-4,2.0646646E-3,2.7477175E-3,4.1997614E-3,-1.0669694E-3,-3.113194E-3,-1.7323904E-3,-2.842697E-4,-4.5399973E-4,2.0424458E-3,-2.9913632E-3,-8.842751E-4],"categories":[],"categories_nodes":[],"categories_segments":[],"categories_sizes":[],"default_left":[0,0,0,0,0,0,0,0,0,0,0,0,0,0,0,0,0,0,0,0,0,0,0,0,0,0,0,0,0,0,0,0,0,0,0,0,0,0,0,0,0],"id":4,"left_children":[1,3,5,7,9,11,13,-1,15,-1,-1,17,19,21,23,-1,-1,25,27,29,31,33,35,37,39,-1,-1,-1,-1,-1,-1,-1,-1,-1,-1,-1,-1,-1,-1,-1,-1],"loss_changes":[6.74034E1,5.711132E0,3.9343952E1,7.755909E-1,1.1112976E-1,1.3604662E1,2.815532E1,0E0,1.0636902E-1,0E0,0E0,1.0706952E1,5.696825E0,1.5883644E1,8.836014E0,0E0,0E0,4.053589E0,3.8179421E0,2.3305383E0,9.6798897E-1,4.6018295E0,5.946312E0,2.96453E0,9.1575503E-1,0E0,0E0,0E0,0E0,0E0,0E0,0E0,0E0,0E0,0E0,0E0,0E0,0E0,0E0,0E0,0E0],"parents":[2147483647,0,0,1,1,2,2,3,3,4,4,5,5,6,6,8,8,11,11,12,12,13,13,14,14,17,17,18,18,19,19,20,20,21,21,22,22,23,23,24,24],"right_children":[2,4,6,8,10,12,14,-1,16,-1,-1,18,20,22,24,-1,-1,26,28,30,32,34,36,38,40,-1,-1,-1,-1,-1,-1,-1,-1,-1,-1,-1,-1,-1,-1,-1,-1],"split_conditions":[-1.1428396E1,3.99E2,1.6925238E0,8.3328575E1,4.79E2,-1.5860949E0,6.827174E-2,2.0045952E-3,-4.0313625E0,6.9473013E-3,6.1821956E-3,-6.8572755E0,4.653734E-2,1.8097115E1,-7.544133E-1,4.17158E-3,3.5480037E-3,-5.9100943E0,3.4556848E-1,2.3611833E3,-4.5640864E0,-1.35830765E1,1.6209768E1,-7.961048E-2,-2.9616582E-1,8.163112E-4,-2.012922E-3,-8.971804E-4,-3.476955E-3,5.7015254E-4,2.0646646E-3,2.7477175E-3,4.1997614E-3,-1.0669694E-3,-3.113194E-3,-1.7323904E-3,-2.842697E-4,-4.5399973E-4,2.0424458E-3,-2.9913632E-3,-8.842751E-4],"split_indices":[24,0,9,1,0,22,31,0,2,0,0,24,31,34,27,0,0,26,14,21,2,11,17,32,3,0,0,0,0,0,0,0,0,0,0,0,0,0,0,0,0],"split_type":[0,0,0,0,0,0,0,0,0,0,0,0,0,0,0,0,0,0,0,0,0,0,0,0,0,0,0,0,0,0,0,0,0,0,0,0,0,0,0,0,0],"sum_hessian":[3.999E4,2.363E3,3.7627E4,1.387E3,9.76E2,1.5743E4,2.1884E4,2.42E2,1.145E3,4.75E2,5.01E2,9.957E3,5.786E3,1.7806E4,4.078E3,6.17E2,5.28E2,7.398E3,2.559E3,3.838E3,1.948E3,7.588E3,1.0218E4,3.334E3,7.44E2,6.911E3,4.87E2,1.842E3,7.17E2,2.198E3,1.64E3,1.342E3,6.06E2,1.171E3,6.417E3,4.948E3,5.27E3,5.04E2,2.83E3,3.75E2,3.69E2],"tree_param":{"num_deleted":"0","num_feature":"46","num_nodes":"41","size_leaf_vector":"1"}},{"base_weights":[3.6276553E-3,1.6499566E-1,-8.009293E-3,2.0862377E-1,1.22240044E-1,-6.833216E-2,7.4853096E-3,5.998727E-3,6.73932E-3,1.4153698E-1,1.0518968E-1,4.8513297E-2,-7.627997E-2,3.9858766E-2,-2.401479E-2,4.4042426E-3,3.9105425E-3,3.4417652E-3,2.4690712E-3,6.886314E-3,2.5809042E-3,3.7123247E-3,-8.554241E-2,3.0348632E-2,1.2667401E-1,-3.481896E-2,6.9803916E-2,1.15552866E-4,4.1740318E-4,-2.0532024E-3,1.5936448E-3,-2.9464378E-3,-1.2532227E-3,8.0188125E-4,6.8361615E-3,-2.1983553E-3,4.135728E-3,-2.9913834E-3,-6.152306E-4,1.3265567E-3,4.205843E-3],"categories":[],"categories_nodes":[],"categories_segments":[],"categories_sizes":[],"default_left":[0,0,0,0,0,0,0,0,0,0,0,0,0,0,0,0,0,0,0,0,0,0,0,0,0,0,0,0,0,0,0,0,0,0,0,0,0,0,0,0,0],"id":5,"left_children":[1,3,5,7,9,11,13,-1,-1,15,17,19,21,23,25,-1,-1,-1,-1,27,-1,29,31,33,35,37,39,-1,-1,-1,-1,-1,-1,-1,-1,-1,-1,-1,-1,-1,-1],"loss_changes":[7.786183E1,5.176956E0,3.6149216E1,1.4653397E-1,4.49358E-1,7.343876E0,3.138123E1,0E0,0E0,1.971817E-2,1.548996E-1,7.8651094E-1,5.4838943E0,1.2525829E1,1.5812066E1,0E0,0E0,0E0,0E0,5.064211E-3,0E0,2.7451131E0,3.6748276E0,9.772866E0,3.359911E0,1.2987867E1,2.8951726E0,0E0,0E0,0E0,0E0,0E0,0E0,0E0,0E0,0E0,0E0,0E0,0E0,0E0,0E0],"parents":[2147483647,0,0,1,1,2,2,3,3,4,4,5,5,6,6,9,9,10,10,11,11,12,12,13,13,14,14,19,19,21,21,22,22,23,23,24,24,25,25,26,26],"right_children":[2,4,6,8,10,12,14,-1,-1,16,18,20,22,24,26,-1,-1,-1,-1,28,-1,30,32,34,36,38,40,-1,-1,-1,-1,-1,-1,-1,-1,-1,-1,-1,-1,-1,-1],"split_conditions":[-1.1428396E1,8.182802E1,1.6733444E1,8.1512E1,-3.145016E0,1.1039129E1,1.7148631E0,5.998727E-3,6.73932E-3,8.186444E1,8.4583336E1,9.0816956E1,5.4275913E0,1.913193E-1,8.374857E0,4.4042426E-3,3.9105425E-3,3.4417652E-3,2.4690712E-3,8.668643E1,2.5809042E-3,5.6079545E0,2.3920577E0,6.384444E0,-2.334402E0,1E0,9.852941E-2,1.15552866E-4,4.1740318E-4,-2.0532024E-3,1.5936448E-3,-2.9464378E-3,-1.2532227E-3,8.0188125E-4,6.8361615E-3,-2.1983553E-3,4.135728E-3,-2.9913834E-3,-6.152306E-4,1.3265567E-3,4.205843E-3],"split_indices":[24,1,34,1,18,34,9,0,0,1,1,1,23,31,12,0,0,0,0,1,0,4,19,7,6,43,29,0,0,0,0,0,0,0,0,0,0,0,0,0,0],"split_type":[0,0,0,0,0,0,0,0,0,0,0,0,0,0,0,0,0,0,0,0,0,0,0,0,0,0,0,0,0,0,0,0,0,0,0,0,0,0,0,0,0],"sum_hessian":[4.1462E4,2.788E3,3.8674E4,1.378E3,1.41E3,7.903E3,3.0771E4,9.03E2,4.75E2,6.58E2,7.52E2,5.03E2,7.4E3,1.5175E4,1.5596E4,4.39E2,2.19E2,5.28E2,2.24E2,2.39E2,2.64E2,7.68E2,6.632E3,1.3678E4,1.497E3,1.3986E4,1.61E3,1.68E2,7.1E1,3.12E2,4.56E2,5.142E3,1.49E3,1.3433E4,2.45E2,7.9E1,1.418E3,2.526E3,1.146E4,1.182E3,4.28E2],"tree_param":{"num_deleted":"0","num_feature":"46","num_nodes":"41","size_leaf_vector":"1"}},{"base_weights":[-7.112968E-3,-2.7452571E-2,7.0957735E-2,-5.3090252E-2,-2.8546015E-3,1.01914324E-1,-4.5047734E-2,-6.7143284E-2,7.986425E-3,3.4722872E-2,-2.3000536E-2,5.08321E-2,1.3547298E-1,8.251245E-3,-1.1837591E-1,-5.3887606E-2,-1.0309775E-1,-5.1193507E-3,1.0486956E-1,8.399472E-3,8.90967E-2,-3.4710273E-2,6.2618345E-2,-3.381286E-2,7.1191184E-2,6.1505575E-2,1.5325594E-1,1.0437441E-1,-1.2937171E-2,-9.4391525E-2,-5.4403E-3,1.5252052E-4,-1.8710956E-3,-3.6807985E-3,-2.3648473E-3,-5.518449E-3,-2.7060883E-5,1.6600242E-3,3.7937597E-3,-5.152752E-3,3.9510286E-4,2.286407E-3,3.1492608E-3,-1.9342724E-3,-1.098388E-4,6.5234215E-3,1.4632351E-3,-4.5717563E-4,-3.467287E-3,9.317102E-4,2.4138226E-3,1.3223073E-3,4.762682E-3,6.0934843E-3,4.0777684E-3,2.1025748E-3,3.4934208E-3,-1.5836018E-3,2.7276328E-4,2.0234729E-4,-3.1404062E-3],"categories":[],"categories_nodes":[],"categories_segments":[],"categories_sizes":[],"default_left":[0,0,0,0,0,0,0,0,0,0,0,0,0,0,0,0,0,0,0,0,0,0,0,0,0,0,0,0,0,0,0,0,0,0,0,0,0,0,0,0,0,0,0,0,0,0,0,0,0,0,0,0,0,0,0,0,0,0,0,0,0],"id":6,"left_children":[1,3,5,7,9,11,13,15,17,19,21,23,25,27,29,31,33,35,37,39,41,43,45,47,49,51,53,55,57,59,-1,-1,-1,-1,-1,-1,-1,-1,-1,-1,-1,-1,-1,-1,-1,-1,-1,-1,-1,-1,-1,-1,-1,-1,-1,-1,-1,-1,-1,-1,-1],"loss_changes":[5.8113728E1,1.8309072E1,2.716792E1,1.2202301E1,1.1218517E1,1.0228909E1,6.2308345E0,5.5025177E0,3.378015E0,7.4019566E0,9.674009E0,4.08489E0,4.7298126E0,1.8832589E0,9.9625015E-1,4.225109E0,1.4703178E0,1.7676301E0,3.3201003E-1,2.998359E0,3.371029E-1,7.8433437E0,2.4779148E0,6.968158E-1,7.080717E-1,1.179465E0,2.48172E0,6.0970783E-2,6.6589564E-1,5.0849915E-1,0E0,0E0,0E0,0E0,0E0,0E0,0E0,0E0,0E0,0E0,0E0,0E0,0E0,0E0,0E0,0E0,0E0,0E0,0E0,0E0,0E0,0E0,0E0,0E0,0E0,0E0,0E0,0E0,0E0,0E0,0E0],"parents":[2147483647,0,0,1,1,2,2,3,3,4,4,5,5,6,6,7,7,8,8,9,9,10,10,11,11,12,12,13,13,14,14,15,15,16,16,17,17,18,18,19,19,20,20,21,21,22,22,23,23,24,24,25,25,26,26,27,27,28,28,29,29],"right_children":[2,4,6,8,10,12,14,16,18,20,22,24,26,28,30,32,34,36,38,40,42,44,46,48,50,52,54,56,58,60,-1,-1,-1,-1,-1,-1,-1,-1,-1,-1,-1,-1,-1,-1,-1,-1,-1,-1,-1,-1,-1,-1,-1,-1,-1,-1,-1,-1,-1,-1,-1],"split_conditions":[-8.123219E0,-2.9346928E-2,1.9066666E0,6.662449E0,5.5349836E0,6.595025E0,-1.1598566E0,-4.608842E0,-1.1871901E-1,-9.627097E0,6.2340374E0,9.062458E1,-6.813551E0,-7.460625E0,6.8461027E0,1.6164286E0,-8.6420335E-2,8.118812E-2,9.9E1,-6.998214E-1,-4.176023E0,1.0968818E1,6.4E1,3.0135715E0,-1.5428571E-1,-4.428579E0,-4.8116207E0,4.6E1,-1.9686667E0,-4.492612E0,-5.4403E-3,1.5252052E-4,-1.8710956E-3,-3.6807985E-3,-2.3648473E-3,-5.518449E-3,-2.7060883E-5,1.6600242E-3,3.7937597E-3,-5.152752E-3,3.9510286E-4,2.286407E-3,3.1492608E-3,-1.9342724E-3,-1.098388E-4,6.5234215E-3,1.4632351E-3,-4.5717563E-4,-3.467287E-3,9.317102E-4,2.4138226E-3,1.3223073E-3,4.762682E-3,6.0934843E-3,4.0777684E-3,2.1025748E-3,3.4934208E-3,-1.5836018E-3,2.7276328E-4,2.0234729E-4,-3.1404062E-3],"split_indices":[11,31,9,4,7,4,6,24,8,16,12,15,11,11,4,9,28,10,0,8,2,37,0,6,8,2,2,0,6,2,0,0,0,0,0,0,0,0,0,0,0,0,0,0,0,0,0,0,0,0,0,0,0,0,0,0,0,0,0,0,0],"split_type":[0,0,0,0,0,0,0,0,0,0,0,0,0,0,0,0,0,0,0,0,0,0,0,0,0,0,0,0,0,0,0,0,0,0,0,0,0,0,0,0,0,0,0,0,0,0,0,0,0,0,0,0,0,0,0,0,0,0,0,0,0],"sum_hessian":[3.6595E4,2.9032E4,7.563E3,1.4215E4,1.4817E4,5.97E3,1.593E3,1.1556E4,2.659E3,5.171E3,9.646E3,2.368E3,3.602E3,9.23E2,6.7E2,8.445E3,3.111E3,2.343E3,3.16E2,3.485E3,1.686E3,8.486E3,1.16E3,4.59E2,1.909E3,6.99E2,2.903E3,1.66E2,7.57E2,4.87E2,1.83E2,1.062E3,7.383E3,1.719E3,1.392E3,5.3E1,2.29E3,9.7E1,2.19E2,8.9E1,3.396E3,9.34E2,7.52E2,4.332E3,4.154E3,9.4E1,1.066E3,3.75E2,8.4E1,3.59E2,1.55E3,5.94E2,1.05E2,7.46E2,2.157E3,4.5E1,1.21E2,2.69E2,4.88E2,4.5E1,4.42E2],"tree_param":{"num_deleted":"0","num_feature":"46","num_nodes":"61","size_leaf_vector":"1"}},{"base_weights":[-3.1835388E-4,1.4350499E-1,-1.03661E-2,2.0181592E-1,1.1540401E-1,2.1931564E-2,-3.930597E-2,5.6843236E-3,6.355145E-3,1.7841554E-3,1.2390629E-1,7.4852794E-2,5.8597783E-3,-5.603658E-2,2.2113664E-2,1.3185057E-1,3.2339555E-3,1.4791591E-1,4.760356E-2,-1.6814303E-2,4.151375E-2,-2.330007E-2,-8.3883904E-2,3.959471E-2,-5.6932118E-2,4.150361E-3,3.8103934E-3,5.54828E-3,3.0272892E-3,7.459822E-4,3.0906673E-3,1.6112938E-4,-1.7489815E-3,2.2646745E-3,2.0911648E-4,-2.6961546E-3,-2.8750772E-4,1.4351907E-3,-2.7194042E-3,7.023258E-4,3.7720134E-3,-2.653997E-3,-1.2692594E-3],"categories":[],"categories_nodes":[],"categories_segments":[],"categories_sizes":[],"default_left":[0,0,0,0,0,0,0,0,0,0,0,0,0,0,0,0,0,0,0,0,0,0,0,0,0,0,0,0,0,0,0,0,0,0,0,0,0,0,0,0,0,0,0],"id":7,"left_children":[1,3,5,7,9,11,13,-1,-1,-1,15,17,19,21,23,25,-1,27,29,31,33,35,37,39,41,-1,-1,-1,-1,-1,-1,-1,-1,-1,-1,-1,-1,-1,-1,-1,-1,-1,-1],"loss_changes":[5.984021E1,4.4074707E0,3.6178047E1,6.8431854E-2,8.6146355E-1,1.5557614E1,2.097842E1,0E0,0E0,0E0,1.8861198E-1,8.476242E0,1.1344461E1,1.46241455E1,6.042115E0,1.5636444E-2,0E0,1.9950848E0,3.9099922E0,7.8951454E0,6.4015675E0,6.7343864E0,7.726982E0,4.987798E0,3.6148238E-1,0E0,0E0,0E0,0E0,0E0,0E0,0E0,0E0,0E0,0E0,0E0,0E0,0E0,0E0,0E0,0E0,0E0,0E0],"parents":[2147483647,0,0,1,1,2,2,3,3,4,4,5,5,6,6,10,10,11,11,12,12,13,13,14,14,15,15,17,17,18,18,19,19,20,20,21,21,22,22,23,23,24,24],"right_children":[2,4,6,8,10,12,14,-1,-1,-1,16,18,20,22,24,26,-1,28,30,32,34,36,38,40,42,-1,-1,-1,-1,-1,-1,-1,-1,-1,-1,-1,-1,-1,-1,-1,-1,-1,-1],"split_conditions":[-1.1428396E1,8.182802E1,1.7148631E0,8.1512E1,-4.8424658E-1,-1.178204E3,3.3757307E-2,5.6843236E-3,6.355145E-3,1.7841554E-3,-3.145016E0,-3.563994E0,6.4429708E0,-1.1923826E1,1.9026329E-1,8.186444E1,3.2339555E-3,8.859901E1,8.185471E-2,-1.1940775E1,-1.0519919E-2,8.3833336E1,-1.0162904E1,1.5169941E-1,-7.764291E-1,4.150361E-3,3.8103934E-3,5.54828E-3,3.0272892E-3,7.459822E-4,3.0906673E-3,1.6112938E-4,-1.7489815E-3,2.2646745E-3,2.0911648E-4,-2.6961546E-3,-2.8750772E-4,1.4351907E-3,-2.7194042E-3,7.023258E-4,3.7720134E-3,-2.653997E-3,-1.2692594E-3],"split_indices":[24,1,9,1,8,30,31,0,0,0,18,18,20,26,31,1,0,1,31,26,32,1,24,31,3,0,0,0,0,0,0,0,0,0,0,0,0,0,0,0,0,0,0],"split_type":[0,0,0,0,0,0,0,0,0,0,0,0,0,0,0,0,0,0,0,0,0,0,0,0,0,0,0,0,0,0,0,0,0,0,0,0,0,0,0,0,0,0,0],"sum_hessian":[4.1407E4,2.703E3,3.8704E4,8.77E2,1.826E3,1.8291E4,2.0413E4,4.02E2,4.75E2,2.42E2,1.584E3,4.26E3,1.4031E4,1.6043E4,4.37E3,1.056E3,5.28E2,1.156E3,3.104E3,8.577E3,5.454E3,7.375E3,8.668E3,3.579E3,7.91E2,4.39E2,6.17E2,6.45E2,5.11E2,2.202E3,9.02E2,5.589E3,2.988E3,2.749E3,2.705E3,1.259E3,6.116E3,4.23E2,8.245E3,3.014E3,5.65E2,2.49E2,5.42E2],"tree_param":{"num_deleted":"0","num_feature":"46","num_nodes":"43","size_leaf_vector":"1"}},{"base_weights":[1.7339458E-3,1.0842655E-1,-1.3952034E-2,2.8462676E-2,1.5094784E-1,1.9620992E-2,-3.6054306E-2,1.7584144E-3,9.3941644E-2,1.2474496E-1,1.9894926E-1,5.929938E-2,2.6064655E-3,-6.2038388E-2,2.5968966E-3,1.1831576E-3,-8.854767E-3,2.0552834E-3,4.0161307E-3,7.056707E-2,1.3479848E-1,6.2141074E-3,5.514217E-3,-6.5689325E-2,6.7107834E-2,3.425847E-2,-3.3364657E-2,1.4517067E-2,-6.900501E-2,-8.14594E-3,1.1464526E-1,-1.9500287E-3,-9.176529E-5,2.7553487E-4,2.4119795E-3,4.815329E-3,3.809925E-3,-6.204055E-4,-2.1982621E-3,1.5659216E-3,2.648117E-3,2.3285905E-3,5.0816505E-4,2.4869754E-3,-1.3814594E-3,1.9432809E-3,5.3300435E-5,-2.597873E-3,-1.2674826E-3,-7.831345E-5,-3.865068E-3,4.3547982E-3,1.684737E-3],"categories":[],"categories_nodes":[],"categories_segments":[],"categories_sizes":[],"default_left":[0,0,0,0,0,0,0,0,0,0,0,0,0,0,0,0,0,0,0,0,0,0,0,0,0,0,0,0,0,0,0,0,0,0,0,0,0,0,0,0,0,0,0,0,0,0,0,0,0,0,0,0,0],"id":8,"left_children":[1,3,5,7,9,11,13,15,17,19,21,23,25,27,29,-1,31,-1,-1,33,35,-1,-1,37,39,41,43,45,47,49,51,-1,-1,-1,-1,-1,-1,-1,-1,-1,-1,-1,-1,-1,-1,-1,-1,-1,-1,-1,-1,-1,-1],"loss_changes":[6.3704586E1,1.6585125E1,2.4626053E1,2.9636567E0,3.981186E0,8.894405E0,2.009853E1,4.8223656E-1,4.894352E-1,1.1141586E0,1.0115433E-1,3.863387E0,1.0500927E1,6.383396E0,9.686042E0,0E0,3.0602053E-1,0E0,0E0,1.9540858E-1,3.2843208E-1,0E0,0E0,7.804084E-2,1.1698532E0,3.6830935E0,6.3700504E0,6.395631E-1,5.1589165E0,4.9053497E0,1.2482929E0,0E0,0E0,0E0,0E0,0E0,0E0,0E0,0E0,0E0,0E0,0E0,0E0,0E0,0E0,0E0,0E0,0E0,0E0,0E0,0E0,0E0,0E0],"parents":[2147483647,0,0,1,1,2,2,3,3,4,4,5,5,6,6,7,7,8,8,9,9,10,10,11,11,12,12,13,13,14,14,16,16,19,19,20,20,23,23,24,24,25,25,26,26,27,27,28,28,29,29,30,30],"right_children":[2,4,6,8,10,12,14,16,18,20,22,24,26,28,30,-1,32,-1,-1,34,36,-1,-1,38,40,42,44,46,48,50,52,-1,-1,-1,-1,-1,-1,-1,-1,-1,-1,-1,-1,-1,-1,-1,-1,-1,-1,-1,-1,-1,-1],"split_conditions":[9.055162E2,-7.3155556E0,1.6925238E0,1.737461E0,8.605719E2,-9.396708E2,1.6085178E1,7.317228E2,-4.3067474E0,6.4203124E0,-4.8296704E0,-1.2751169E1,5.475676E0,2.3044297E-1,1.9517578E1,1.1831576E-3,8.8E1,2.0552834E-3,4.0161307E-3,4.6E1,-4.584047E0,6.2141074E-3,5.514217E-3,3.5E1,-1.4179412E0,1.5591096E0,1.9711833E3,-3.9573183E0,9.501392E1,1.2906667E0,2.24E2,-1.9500287E-3,-9.176529E-5,2.7553487E-4,2.4119795E-3,4.815329E-3,3.809925E-3,-6.204055E-4,-2.1982621E-3,1.5659216E-3,2.648117E-3,2.3285905E-3,5.0816505E-4,2.4869754E-3,-1.3814594E-3,1.9432809E-3,5.3300435E-5,-2.597873E-3,-1.2674826E-3,-7.831345E-5,-3.865068E-3,4.3547982E-3,1.684737E-3],"split_indices":[5,11,9,12,5,30,17,5,2,4,2,11,23,14,17,0,0,0,0,0,2,0,0,0,6,9,21,2,15,6,0,0,0,0,0,0,0,0,0,0,0,0,0,0,0,0,0,0,0,0,0,0,0],"split_type":[0,0,0,0,0,0,0,0,0,0,0,0,0,0,0,0,0,0,0,0,0,0,0,0,0,0,0,0,0,0,0,0,0,0,0,0,0,0,0,0,0,0,0,0,0,0,0,0,0,0,0,0,0],"sum_hessian":[3.8063E4,4.878E3,3.3185E4,1.694E3,3.184E3,1.3174E4,2.0011E4,1.204E3,4.9E2,2.062E3,1.122E3,3.953E3,9.221E3,1.1966E4,8.045E3,2.64E2,9.4E2,3.01E2,1.89E2,3.24E2,1.738E3,7.2E2,4.02E2,2.32E2,3.721E3,4.905E3,4.316E3,9.98E2,1.0968E4,7.342E3,7.03E2,8.7E1,8.53E2,4.5E1,2.79E2,4E2,1.338E3,3.4E1,1.98E2,2.185E3,1.536E3,1.399E3,3.506E3,4.24E2,3.892E3,2.01E2,7.97E2,6.616E3,4.352E3,7.021E3,3.21E2,4.61E2,2.42E2],"tree_param":{"num_deleted":"0","num_feature":"46","num_nodes":"53","size_leaf_vector":"1"}},{"base_weights":[-1.4169082E-3,-1.9772667E-2,8.062678E-2,-6.548989E-2,-4.3050935E-3,1.4545435E-1,5.4179594E-2,-8.101797E-2,3.5012007E-2,-8.416972E-3,9.7404495E-2,3.4174055E-4,1.5948945E-1,-2.5428329E-2,6.895274E-2,-9.033901E-2,1.20089995E-2,-1.198383E-2,1.0934322E-1,2.5360156E-2,-2.0547193E-2,5.6748983E-2,1.1417002E-1,1.8354876E-1,1.2631088E-1,6.134055E-2,-5.358489E-2,1.2208035E-1,5.1098205E-2,-2.54608E-3,-3.8929603E-3,2.2219145E-3,-1.8058604E-3,-9.9585795E-6,-1.8035945E-3,4.5292596E-3,2.4195663E-3,-1.179559E-3,1.1085703E-3,2.2514656E-4,-1.3763612E-3,1.0533846E-5,2.1836841E-3,3.896281E-3,3.241406E-3,6.0984115E-3,5.339288E-3,3.6444461E-3,3.9120945E-3,3.6320307E-3,3.1753888E-4,-2.8654437E-3,1.9214487E-4,4.180673E-3,2.0307866E-3,-9.0424914E-4,1.8862295E-3],"categories":[],"categories_nodes":[],"categories_segments":[],"categories_sizes":[],"default_left":[0,0,0,0,0,0,0,0,0,0,0,0,0,0,0,0,0,0,0,0,0,0,0,0,0,0,0,0,0,0,0,0,0,0,0,0,0,0,0,0,0,0,0,0,0,0,0,0,0,0,0,0,0,0,0,0,0],"id":9,"left_children":[1,3,5,7,9,11,13,15,17,19,21,-1,23,25,27,29,31,33,35,37,39,41,43,45,47,49,51,53,55,-1,-1,-1,-1,-1,-1,-1,-1,-1,-1,-1,-1,-1,-1,-1,-1,-1,-1,-1,-1,-1,-1,-1,-1,-1,-1,-1,-1],"loss_changes":[6.2388077E1,2.3938337E1,1.2977795E1,1.3358463E1,1.05800495E1,4.1263847E0,6.3301287E0,6.4289627E0,4.004584E0,9.962549E0,6.6354465E-1,0E0,1.562149E0,2.0628314E0,4.2993164E0,1.4420319E0,3.0333626E0,3.9427486E-1,5.1816654E-1,4.818716E0,1.2713009E1,2.614181E-1,5.28059E-2,9.0156555E-2,7.209778E-4,6.2624043E-1,1.6028979E0,1.0626106E0,3.253683E0,0E0,0E0,0E0,0E0,0E0,0E0,0E0,0E0,0E0,0E0,0E0,0E0,0E0,0E0,0E0,0E0,0E0,0E0,0E0,0E0,0E0,0E0,0E0,0E0,0E0,0E0,0E0,0E0],"parents":[2147483647,0,0,1,1,2,2,3,3,4,4,5,5,6,6,7,7,8,8,9,9,10,10,12,12,13,13,14,14,15,15,16,16,17,17,18,18,19,19,20,20,21,21,22,22,23,23,24,24,25,25,26,26,27,27,28,28],"right_children":[2,4,6,8,10,12,14,16,18,20,22,-1,24,26,28,30,32,34,36,38,40,42,44,46,48,50,52,54,56,-1,-1,-1,-1,-1,-1,-1,-1,-1,-1,-1,-1,-1,-1,-1,-1,-1,-1,-1,-1,-1,-1,-1,-1,-1,-1,-1,-1],"split_conditions":[-8.123219E0,1E0,-1.0937604E1,4.4262296E-1,2.1037166E-1,2.09E2,7.7E1,-1.0870548E0,1.7E2,5.522987E0,-5.342816E0,3.4174055E-4,7E0,2.143317E3,1.0617203E1,6.359432E0,2.01E2,5.240642E-1,1.8E2,1.75E2,-3.2417355E0,6.5E1,1.98E2,2.49E2,3.99E2,3.520975E-1,4.602979E-1,9.237778E1,5.535E0,-2.54608E-3,-3.8929603E-3,2.2219145E-3,-1.8058604E-3,-9.9585795E-6,-1.8035945E-3,4.5292596E-3,2.4195663E-3,-1.179559E-3,1.1085703E-3,2.2514656E-4,-1.3763612E-3,1.0533846E-5,2.1836841E-3,3.896281E-3,3.241406E-3,6.0984115E-3,5.339288E-3,3.6444461E-3,3.9120945E-3,3.6320307E-3,3.1753888E-4,-2.8654437E-3,1.9214487E-4,4.180673E-3,2.0307866E-3,-9.0424914E-4,1.8862295E-3],"split_indices":[11,43,24,14,29,0,0,26,0,23,16,0,4,21,33,7,0,14,0,0,18,0,0,0,0,14,3,15,7,0,0,0,0,0,0,0,0,0,0,0,0,0,0,0,0,0,0,0,0,0,0,0,0,0,0,0,0],"split_type":[0,0,0,0,0,0,0,0,0,0,0,0,0,0,0,0,0,0,0,0,0,0,0,0,0,0,0,0,0,0,0,0,0,0,0,0,0,0,0,0,0,0,0,0,0,0,0,0,0,0,0,0,0,0,0,0,0],"sum_hessian":[4.1425E4,3.3852E4,7.573E3,8.557E3,2.5295E4,2.193E3,5.38E3,7.412E3,1.145E3,2.4313E4,9.82E2,2.08E2,1.985E3,8.42E2,4.538E3,6.737E3,6.75E2,7.02E2,4.43E2,6.424E3,1.7889E4,2.88E2,6.94E2,1.148E3,8.37E2,2.06E2,6.36E2,1.14E3,3.398E3,5.919E3,8.18E2,3.63E2,3.12E2,5.66E2,1.36E2,1.79E2,2.64E2,9.76E2,5.448E3,8.489E3,9.4E3,6.4E1,2.24E2,1.89E2,5.05E2,2.45E2,9.03E2,3.98E2,4.39E2,9.4E1,1.12E2,3.74E2,2.62E2,8.64E2,2.76E2,4.3E2,2.968E3],"tree_param":{"num_deleted":"0","num_feature":"46","num_nodes":"57","size_leaf_vector":"1"}},{"base_weights":[-1.0596999E-3,1.3389629E-1,-1.2796911E-2,1.8012878E-1,1.0274636E-1,1.3167615E-2,-4.0020753E-2,5.1792865E-3,5.8190175E-3,7.759852E-2,1.15945965E-1,1.00714006E-1,5.202117E-3,-8.371767E-2,-2.3534626E-2,6.3967556E-2,3.1042595E-3,1.0481186E-1,1.2253059E-1,3.08126E-2,1.3734634E-1,1.4504195E-2,-5.4443583E-2,-6.437258E-2,-1.1030449E-1,7.7414694E-3,-4.428453E-2,2.118465E-3,1.7264643E-3,3.339821E-3,2.983566E-3,3.535387E-3,3.7949984E-3,1.9177964E-3,1.3353568E-4,3.6013096E-3,5.9162034E-3,-1.585849E-3,6.5474864E-4,-2.2379954E-3,6.6881033E-4,3.335417E-4,-2.2028666E-3,-4.4811293E-3,-2.9975658E-3,-3.915901E-4,1.5472433E-3,-2.1262602E-3,-5.7462737E-4],"categories":[],"categories_nodes":[],"categories_segments":[],"categories_sizes":[],"default_left":[0,0,0,0,0,0,0,0,0,0,0,0,0,0,0,0,0,0,0,0,0,0,0,0,0,0,0,0,0,0,0,0,0,0,0,0,0,0,0,0,0,0,0,0,0,0,0,0,0],"id":10,"left_children":[1,3,5,7,9,11,13,-1,-1,15,17,19,21,23,25,27,-1,29,31,33,35,37,39,41,43,45,47,-1,-1,-1,-1,-1,-1,-1,-1,-1,-1,-1,-1,-1,-1,-1,-1,-1,-1,-1,-1,-1,-1],"loss_changes":[6.788433E1,4.919731E0,2.7869665E1,1.0936737E-1,6.718159E-1,1.4072709E1,1.3863434E1,0E0,0E0,2.4346352E-1,8.561897E-2,4.3053455E0,1.0264572E1,2.7044182E0,9.070433E0,1.5863776E-2,0E0,6.5979958E-3,6.7424774E-4,5.06015E-1,1.1197891E0,7.8938317E0,3.862317E0,2.0887337E0,8.8539124E-1,5.082233E0,5.613146E0,0E0,0E0,0E0,0E0,0E0,0E0,0E0,0E0,0E0,0E0,0E0,0E0,0E0,0E0,0E0,0E0,0E0,0E0,0E0,0E0,0E0,0E0],"parents":[2147483647,0,0,1,1,2,2,3,3,4,4,5,5,6,6,9,9,10,10,11,11,12,12,13,13,14,14,15,15,17,17,18,18,19,19,20,20,21,21,22,22,23,23,24,24,25,25,26,26],"right_children":[2,4,6,8,10,12,14,-1,-1,16,18,20,22,24,26,28,-1,30,32,34,36,38,40,42,44,46,48,-1,-1,-1,-1,-1,-1,-1,-1,-1,-1,-1,-1,-1,-1,-1,-1,-1,-1,-1,-1,-1,-1],"split_conditions":[-1.1428396E1,8.182802E1,-1.0294007E0,8.1512E1,-2.0703845E0,-1.3142954E3,6.1135416E0,5.1792865E-3,5.8190175E-3,-4.1059504E0,2.88E2,2.285285E3,1.8735514E0,5.95137E0,1.8517302E0,2.26E2,3.1042595E-3,2.24E2,3.99E2,8.584681E1,2.45E2,-5.2974415E0,2.8150135E-1,4.9472117E0,2.0372646E3,2.39E2,2.414307E-1,2.118465E-3,1.7264643E-3,3.339821E-3,2.983566E-3,3.535387E-3,3.7949984E-3,1.9177964E-3,1.3353568E-4,3.6013096E-3,5.9162034E-3,-1.585849E-3,6.5474864E-4,-2.2379954E-3,6.6881033E-4,3.335417E-4,-2.2028666E-3,-4.4811293E-3,-2.9975658E-3,-3.915901E-4,1.5472433E-3,-2.1262602E-3,-5.7462737E-4],"split_indices":[24,1,27,1,6,30,4,0,0,2,0,21,9,4,9,0,0,0,0,1,0,25,10,33,21,0,35,0,0,0,0,0,0,0,0,0,0,0,0,0,0,0,0,0,0,0,0,0,0],"split_type":[0,0,0,0,0,0,0,0,0,0,0,0,0,0,0,0,0,0,0,0,0,0,0,0,0,0,0,0,0,0,0,0,0,0,0,0,0,0,0,0,0,0,0,0,0,0,0,0,0],"sum_hessian":[4.2854E4,3.428E3,3.9426E4,1.378E3,2.05E3,2.018E4,1.9246E4,9.03E2,4.75E2,7.08E2,1.342E3,1.682E3,1.8498E4,5.271E3,1.3975E4,4.66E2,2.42E2,5.05E2,8.37E2,5.79E2,1.103E3,1.6003E4,2.495E3,3.053E3,2.218E3,5.574E3,8.401E3,2.24E2,2.42E2,2.19E2,2.86E2,3.98E2,4.39E2,2.56E2,3.23E2,8.58E2,2.45E2,1.568E3,1.4435E4,1.976E3,5.19E2,3.27E2,2.726E3,4.63E2,1.755E3,3.781E3,1.793E3,4.081E3,4.32E3],"tree_param":{"num_deleted":"0","num_feature":"46","num_nodes":"49","size_leaf_vector":"1"}},{"base_weights":[3.9752326E-3,1.4911783E-1,-6.1336067E-3,1.747329E-1,1.1158101E-1,1.8584272E-2,-5.0477438E-2,5.02408E-3,5.644813E-3,1.0168E-1,3.6814073E-3,7.2702547E-3,8.661047E-2,5.78233E-3,-6.1806973E-2,3.2400817E-3,2.8943706E-3,1.3031391E-2,-6.0193904E-2,6.068134E-2,1.4109486E-1,5.953544E-3,-5.800252E-4,-3.298747E-2,-7.605356E-2,-4.4388566E-4,8.2288176E-4,-7.579846E-4,-3.331726E-3,3.9957944E-4,2.1151495E-3,4.788179E-3,1.5645773E-3,-1.2743937E-4,6.5441956E-3,-2.1738275E-3,-2.9073022E-5,-2.834152E-3,-1.6986646E-3],"categories":[],"categories_nodes":[],"categories_segments":[],"categories_sizes":[],"default_left":[0,0,0,0,0,0,0,0,0,0,0,0,0,0,0,0,0,0,0,0,0,0,0,0,0,0,0,0,0,0,0,0,0,0,0,0,0,0,0],"id":11,"left_children":[1,3,5,7,9,11,13,-1,-1,15,-1,17,19,21,23,-1,-1,25,27,29,31,-1,33,35,37,-1,-1,-1,-1,-1,-1,-1,-1,-1,-1,-1,-1,-1,-1],"loss_changes":[5.2345566E1,2.2140846E0,3.6559772E1,1.0298538E-1,9.168434E-2,1.6482956E1,7.609604E0,0E0,0E0,6.219387E-3,0E0,7.138325E0,4.3059273E0,2.4542258E0,4.0774193E0,0E0,0E0,6.779599E0,2.564312E0,9.6263075E-1,1.6117516E0,0E0,1.556498E0,4.1568165E0,2.3742676E0,0E0,0E0,0E0,0E0,0E0,0E0,0E0,0E0,0E0,0E0,0E0,0E0,0E0,0E0],"parents":[2147483647,0,0,1,1,2,2,3,3,4,4,5,5,6,6,9,9,11,11,12,12,13,13,14,14,17,17,18,18,19,19,20,20,22,22,23,23,24,24],"right_children":[2,4,6,8,10,12,14,-1,-1,16,-1,18,20,22,24,-1,-1,26,28,30,32,-1,34,36,38,-1,-1,-1,-1,-1,-1,-1,-1,-1,-1,-1,-1,-1,-1],"split_conditions":[-1.23961E1,8.182802E1,1.8321158E0,8.1512E1,2.88E2,-8.064E0,-9.763478E0,5.02408E-3,5.644813E-3,2.24E2,3.6814073E-3,3.6344779E0,4.363913E0,-5.506724E0,2.08E2,3.2400817E-3,2.8943706E-3,-1.2751169E1,2.7818182E-1,-4.2940366E-1,8.859901E1,5.953544E-3,2.3178008E0,5.90709E0,1.2954372E1,-4.4388566E-4,8.2288176E-4,-7.579846E-4,-3.331726E-3,3.9957944E-4,2.1151495E-3,4.788179E-3,1.5645773E-3,-1.2743937E-4,6.5441956E-3,-2.1738275E-3,-2.9073022E-5,-2.834152E-3,-1.6986646E-3],"split_indices":[24,1,9,1,0,11,24,0,0,0,0,25,12,2,0,0,0,11,35,28,1,0,19,7,38,0,0,0,0,0,0,0,0,0,0,0,0,0,0],"split_type":[0,0,0,0,0,0,0,0,0,0,0,0,0,0,0,0,0,0,0,0,0,0,0,0,0,0,0,0,0,0,0,0,0,0,0,0,0,0,0],"sum_hessian":[3.5675E4,2.322E3,3.3353E4,1.378E3,9.44E2,2.1416E4,1.1937E4,9.03E2,4.75E2,5.05E2,4.39E2,1.8363E4,3.053E3,2.001E3,9.936E3,2.19E2,2.86E2,1.6919E4,1.444E3,2.07E3,9.83E2,6.3E1,1.938E3,3.288E3,6.648E3,5.769E3,1.115E4,8.57E2,5.87E2,3.56E2,1.714E3,8.13E2,1.7E2,1.907E3,3.1E1,1.472E3,1.816E3,3.411E3,3.237E3],"tree_param":{"num_deleted":"0","num_feature":"46","num_nodes":"39","size_leaf_vector":"1"}},{"base_weights":[-2.9777526E-3,1.1069608E-1,-1.4795178E-2,1.7208716E-1,8.762898E-2,-5.5762507E-2,4.96109E-3,4.855343E-3,5.4758242E-3,1.0308792E-1,1.5729284E-3,-8.0878556E-2,-2.3640003E-2,9.7413233E-4,8.505392E-2,1.0804821E-1,2.030617E-3,-8.57835E-2,-3.950329E-3,-4.7170814E-2,1.4064104E-2,-1.4927668E-2,2.0473527E-2,1.5596177E-1,6.4919434E-2,3.477908E-3,2.9721998E-3,-1.8635815E-3,-3.0400266E-3,-7.492569E-4,2.476133E-5,2.7678438E-4,-1.9789676E-3,-4.4090976E-3,1.2784378E-3,2.746252E-3,-5.877583E-4,7.240832E-4,-2.7144554E-3,5.7777273E-3,4.262148E-3,2.4469986E-3,1.5967143E-3],"categories":[],"categories_nodes":[],"categories_segments":[],"categories_sizes":[],"default_left":[0,0,0,0,0,0,0,0,0,0,0,0,0,0,0,0,0,0,0,0,0,0,0,0,0,0,0,0,0,0,0,0,0,0,0,0,0,0,0,0,0,0,0],"id":12,"left_children":[1,3,5,7,9,11,13,-1,-1,15,-1,17,19,21,23,25,-1,27,29,31,33,35,37,39,41,-1,-1,-1,-1,-1,-1,-1,-1,-1,-1,-1,-1,-1,-1,-1,-1,-1,-1],"loss_changes":[5.1083176E1,5.0560303E0,2.7879543E1,7.49321E-2,1.4120369E0,9.039787E0,7.4210715E0,0E0,0E0,3.103428E-1,0E0,2.3726768E0,4.364841E0,6.865066E0,1.5631924E0,1.00637436E-1,0E0,2.1692848E0,3.7975125E-2,3.2112517E0,8.700326E0,6.057863E0,4.0436645E0,9.627247E-2,1.6310024E-1,0E0,0E0,0E0,0E0,0E0,0E0,0E0,0E0,0E0,0E0,0E0,0E0,0E0,0E0,0E0,0E0,0E0,0E0],"parents":[2147483647,0,0,1,1,2,2,3,3,4,4,5,5,6,6,9,9,11,11,12,12,13,13,14,14,15,15,17,17,18,18,19,19,20,20,21,21,22,22,23,23,24,24],"right_children":[2,4,6,8,10,12,14,-1,-1,16,-1,18,20,22,24,26,-1,28,30,32,34,36,38,40,42,-1,-1,-1,-1,-1,-1,-1,-1,-1,-1,-1,-1,-1,-1,-1,-1,-1,-1],"split_conditions":[-1.1306199E1,8.182802E1,1.7970047E1,8.062187E1,-9.487598E0,-2.9346928E-2,1.9476355E1,4.855343E-3,5.4758242E-3,8.4583336E1,1.5729284E-3,4.529321E-1,-1.0406154E1,-3.4484014E-2,-5.3700604E0,-4.5493283E0,2.030617E-3,5.95137E0,8.552353E1,2.1880735E3,-6.8759975E0,-4.844981E0,-3.7392206E0,8.410381E1,-4.662433E0,3.477908E-3,2.9721998E-3,-1.8635815E-3,-3.0400266E-3,-7.492569E-4,2.476133E-5,2.7678438E-4,-1.9789676E-3,-4.4090976E-3,1.2784378E-3,2.746252E-3,-5.877583E-4,7.240832E-4,-2.7144554E-3,5.7777273E-3,4.262148E-3,2.4469986E-3,1.5967143E-3],"split_indices":[24,1,34,1,26,31,17,0,0,1,0,14,11,32,2,2,0,4,1,21,24,2,2,1,2,0,0,0,0,0,0,0,0,0,0,0,0,0,0,0,0,0,0],"split_type":[0,0,0,0,0,0,0,0,0,0,0,0,0,0,0,0,0,0,0,0,0,0,0,0,0,0,0,0,0,0,0,0,0,0,0,0,0,0,0,0,0,0,0],"sum_hessian":[3.8025E4,3.58E3,3.4445E4,9.76E2,2.604E3,1.1206E4,2.3239E4,5.01E2,4.75E2,1.808E3,7.96E2,6.288E3,4.918E3,2.2138E4,1.101E3,1.584E3,2.24E2,5.911E3,3.77E2,3.028E3,1.89E3,1.2194E4,9.944E3,2.42E2,8.59E2,8.37E2,7.47E2,2.346E3,3.565E3,6.9E1,3.08E2,7.57E2,2.271E3,2.84E2,1.606E3,5.11E2,1.1683E4,9.627E3,3.17E2,6.3E1,1.79E2,3.52E2,5.07E2],"tree_param":{"num_deleted":"0","num_feature":"46","num_nodes":"43","size_leaf_vector":"1"}},{"base_weights":[1.06679625E-4,-2.3992358E-2,4.0595785E-2,1.014124E-2,-5.038623E-2,1.6746363E-2,1.0655862E-1,-3.0678642E-5,6.884434E-2,-6.528791E-2,4.66265E-3,7.6613445E-3,9.902349E-2,1.23300426E-1,-6.457582E-2,-1.5385577E-2,3.897558E-2,-4.8593356E-4,7.078925E-2,-6.953283E-2,7.685275E-2,-6.0580406E-2,3.0071503E-2,5.0620314E-2,-1.2183607E-2,3.1787433E-2,1.144523E-1,1.6049325E-1,9.923936E-2,-1.22479014E-1,-2.6321143E-2,-3.3628845E-4,-4.4241995E-3,2.0551628E-3,3.4814162E-4,2.4298995E-3,1.8054325E-3,-2.4189888E-3,-1.4647811E-3,1.4265575E-3,5.6071044E-3,-3.4436276E-3,-1.6218176E-3,1.382472E-3,-6.4622174E-4,2.4387033E-3,4.2210147E-4,-9.5592544E-4,2.7386102E-4,1.3980002E-3,5.0197308E-5,2.8702621E-3,4.2766817E-3,4.5360066E-3,5.3118947E-3,2.5256868E-3,5.4135835E-3,-5.766461E-3,-3.0090383E-3,-1.5172581E-3,1.1007226E-3],"categories":[],"categories_nodes":[],"categories_segments":[],"categories_sizes":[],"default_left":[0,0,0,0,0,0,0,0,0,0,0,0,0,0,0,0,0,0,0,0,0,0,0,0,0,0,0,0,0,0,0,0,0,0,0,0,0,0,0,0,0,0,0,0,0,0,0,0,0,0,0,0,0,0,0,0,0,0,0,0,0],"id":13,"left_children":[1,3,5,7,9,11,13,15,17,19,21,23,25,27,29,31,33,-1,35,37,39,41,43,45,47,49,51,53,55,57,59,-1,-1,-1,-1,-1,-1,-1,-1,-1,-1,-1,-1,-1,-1,-1,-1,-1,-1,-1,-1,-1,-1,-1,-1,-1,-1,-1,-1,-1,-1],"loss_changes":[3.6951595E1,2.1388298E1,2.2227184E1,6.1820188E0,1.0982761E1,7.757431E0,1.0757816E1,5.28622E0,2.540412E-1,6.362507E0,4.7313857E0,7.9699607E0,1.0669298E0,3.042839E0,7.388239E-1,3.491588E0,2.0141904E0,0E0,1.5700674E-1,2.3476372E0,9.778333E-1,2.765317E-1,1.698332E0,3.3102584E0,2.6825998E0,8.6459324E-2,4.2910194E-1,1.7971802E-1,2.5246334E0,1.8641758E-1,3.1210032E-1,0E0,0E0,0E0,0E0,0E0,0E0,0E0,0E0,0E0,0E0,0E0,0E0,0E0,0E0,0E0,0E0,0E0,0E0,0E0,0E0,0E0,0E0,0E0,0E0,0E0,0E0,0E0,0E0,0E0,0E0],"parents":[2147483647,0,0,1,1,2,2,3,3,4,4,5,5,6,6,7,7,8,8,9,9,10,10,11,11,12,12,13,13,14,14,15,15,16,16,18,18,19,19,20,20,21,21,22,22,23,23,24,24,25,25,26,26,27,27,28,28,29,29,30,30],"right_children":[2,4,6,8,10,12,14,16,18,20,22,24,26,28,30,32,34,-1,36,38,40,42,44,46,48,50,52,54,56,58,60,-1,-1,-1,-1,-1,-1,-1,-1,-1,-1,-1,-1,-1,-1,-1,-1,-1,-1,-1,-1,-1,-1,-1,-1,-1,-1,-1,-1,-1,-1],"split_conditions":[6.5904284E0,1.7066667E0,-8.123219E0,1.6858723E1,3.327061E-2,9.616364E0,1.9515069E0,9.392255E1,5.463584E0,1.918788E1,5.5866134E-1,1.7148631E0,1.594203E-1,8.434409E1,8.462098E1,9.368252E1,-1.2885763E1,-4.8593356E-4,-3.4982035E0,9.501392E1,8.240311E1,8.226961E1,1.87E0,9.2822895E0,2.1113689E-1,8.309498E1,8.378636E1,6.7755103E0,9.840012E1,-2.0955908E0,8.502581E1,-3.3628845E-4,-4.4241995E-3,2.0551628E-3,3.4814162E-4,2.4298995E-3,1.8054325E-3,-2.4189888E-3,-1.4647811E-3,1.4265575E-3,5.6071044E-3,-3.4436276E-3,-1.6218176E-3,1.382472E-3,-6.4622174E-4,2.4387033E-3,4.2210147E-4,-9.5592544E-4,2.7386102E-4,1.3980002E-3,5.0197308E-5,2.8702621E-3,4.2766817E-3,4.5360066E-3,5.3118947E-3,2.5256868E-3,5.4135835E-3,-5.766461E-3,-3.0090383E-3,-1.5172581E-3,1.1007226E-3],"split_indices":[4,9,11,17,31,12,9,15,7,17,3,9,10,1,1,15,26,0,18,15,1,1,9,37,10,1,1,4,15,3,1,0,0,0,0,0,0,0,0,0,0,0,0,0,0,0,0,0,0,0,0,0,0,0,0,0,0,0,0,0,0],"split_type":[0,0,0,0,0,0,0,0,0,0,0,0,0,0,0,0,0,0,0,0,0,0,0,0,0,0,0,0,0,0,0,0,0,0,0,0,0,0,0,0,0,0,0,0,0,0,0,0,0,0,0,0,0,0,0,0,0,0,0,0,0],"sum_hessian":[3.7868E4,2.3739E4,1.4129E4,1.0352E4,1.3387E4,1.0378E4,3.751E3,8.824E3,1.528E3,1.0535E4,2.852E3,9.347E3,1.031E3,3.417E3,3.34E2,6.332E3,2.492E3,3.4E1,1.494E3,1.023E4,3.05E2,7.99E2,2.053E3,2.953E3,6.394E3,1.93E2,8.38E2,1.34E3,2.077E3,1.32E2,2.02E2,6.139E3,1.93E2,1.198E3,1.294E3,7.58E2,7.36E2,6.658E3,3.572E3,2.42E2,6.3E1,8.4E1,7.15E2,1.567E3,4.86E2,1.605E3,1.348E3,3.324E3,3.07E3,1.29E2,6.4E1,5.05E2,3.33E2,8.65E2,4.75E2,1.754E3,3.23E2,3E1,1.02E2,1.46E2,5.6E1],"tree_param":{"num_deleted":"0","num_feature":"46","num_nodes":"61","size_leaf_vector":"1"}},{"base_weights":[2.5592423E-3,9.429163E-2,-1.0664713E-2,-1.3694419E-2,1.12319484E-1,-4.453542E-2,2.6282622E-3,-1.9641824E-4,-1.8364048E-3,7.921994E-2,1.428242E-1,-7.03739E-2,-1.8358382E-3,-5.08681E-2,1.2334642E-2,9.577386E-2,3.2746084E-2,1.0940629E-1,1.5457605E-1,-7.915475E-2,1.871365E-2,-9.54084E-2,1.3807418E-2,-8.842412E-2,-1.1989044E-2,8.004798E-3,9.4772905E-2,3.2475092E-3,2.0480354E-3,2.5225512E-4,1.7001645E-3,3.1298283E-3,3.553597E-3,4.507329E-3,5.307284E-3,-2.1937748E-3,-3.814073E-3,1.1955433E-3,-8.659316E-4,-4.8403414E-3,-1.9683912E-3,-6.803619E-4,1.1616753E-3,-3.3048014E-3,-1.680297E-3,1.7215031E-3,-8.0794113E-4,-1.404592E-3,3.7808972E-4,2.3331083E-3,4.4016065E-3],"categories":[],"categories_nodes":[],"categories_segments":[],"categories_sizes":[],"default_left":[0,0,0,0,0,0,0,0,0,0,0,0,0,0,0,0,0,0,0,0,0,0,0,0,0,0,0,0,0,0,0,0,0,0,0,0,0,0,0,0,0,0,0,0,0,0,0,0,0,0,0],"id":14,"left_children":[1,3,5,7,9,11,13,-1,-1,15,17,19,21,23,25,27,29,31,33,35,37,39,41,43,45,47,49,-1,-1,-1,-1,-1,-1,-1,-1,-1,-1,-1,-1,-1,-1,-1,-1,-1,-1,-1,-1,-1,-1,-1,-1],"loss_changes":[4.529928E1,9.16103E0,1.4695133E1,2.2850688E-1,4.059765E0,1.01490555E1,1.21719885E1,0E0,0E0,1.4862757E0,8.0662537E-1,4.484644E0,5.079169E0,5.255453E0,7.0813837E0,4.8232365E-1,2.9649782E-1,1.2866974E-2,1.2327194E-1,1.4998436E0,5.190832E-1,9.6581745E-1,2.703501E0,1.2838659E0,1.8363032E0,4.753063E0,8.62998E-1,0E0,0E0,0E0,0E0,0E0,0E0,0E0,0E0,0E0,0E0,0E0,0E0,0E0,0E0,0E0,0E0,0E0,0E0,0E0,0E0,0E0,0E0,0E0,0E0],"parents":[2147483647,0,0,1,1,2,2,3,3,4,4,5,5,6,6,9,9,10,10,11,11,12,12,13,13,14,14,15,15,16,16,17,17,18,18,19,19,20,20,21,21,22,22,23,23,24,24,25,25,26,26],"right_children":[2,4,6,8,10,12,14,-1,-1,16,18,20,22,24,26,28,30,32,34,36,38,40,42,44,46,48,50,-1,-1,-1,-1,-1,-1,-1,-1,-1,-1,-1,-1,-1,-1,-1,-1,-1,-1,-1,-1,-1,-1,-1,-1],"split_conditions":[9.055162E2,-8.6959505E0,2.1562754E3,8.3094574E1,7.708825E2,4.4262296E-1,-4.3698114E-1,-1.9641824E-4,-1.8364048E-3,-1.16236145E-2,5.762E0,5.238774E-2,1.8794326E-1,-2.0351174E0,1.9517578E1,8.448926E1,8.492449E1,8.473333E1,8.434409E1,3.0726666E0,5.4705715E0,8.527955E1,-2.087901E0,-1.5498121E0,7.670319E-2,-5.3105846E-2,8.378636E1,3.2475092E-3,2.0480354E-3,2.5225512E-4,1.7001645E-3,3.1298283E-3,3.553597E-3,4.507329E-3,5.307284E-3,-2.1937748E-3,-3.814073E-3,1.1955433E-3,-8.659316E-4,-4.8403414E-3,-1.9683912E-3,-6.803619E-4,1.1616753E-3,-3.3048014E-3,-1.680297E-3,1.7215031E-3,-8.0794113E-4,-1.404592E-3,3.7808972E-4,2.3331083E-3,4.4016065E-3],"split_indices":[5,11,21,1,5,36,8,0,0,32,7,29,35,25,17,1,1,1,1,25,7,1,6,6,10,29,1,0,0,0,0,0,0,0,0,0,0,0,0,0,0,0,0,0,0,0,0,0,0,0,0],"split_type":[0,0,0,0,0,0,0,0,0,0,0,0,0,0,0,0,0,0,0,0,0,0,0,0,0,0,0,0,0,0,0,0,0,0,0,0,0,0,0,0,0,0,0,0,0,0,0,0,0,0,0],"sum_hessian":[3.7341E4,4.704E3,3.2637E4,6.73E2,4.031E3,9.198E3,2.3439E4,5.86E2,8.7E1,1.935E3,2.096E3,5.73E3,3.468E3,3.599E3,1.984E4,1.426E3,5.09E2,5.48E2,1.548E3,5.216E3,5.14E2,4.96E2,2.972E3,1.83E3,1.769E3,1.8851E4,9.89E2,9.79E2,4.47E2,2.53E2,2.56E2,3.59E2,1.89E2,1.303E3,2.45E2,4.636E3,5.8E2,3.56E2,1.58E2,1.53E2,3.43E2,1.206E3,1.766E3,1.094E3,7.36E2,3.13E2,1.456E3,1.458E3,1.7393E4,7.47E2,2.42E2],"tree_param":{"num_deleted":"0","num_feature":"46","num_nodes":"51","size_leaf_vector":"1"}},{"base_weights":[-1.4491916E-3,3.0807715E-2,-3.0861178E-2,8.197172E-3,8.939871E-2,-5.091747E-2,2.5245724E-3,1.9691704E-2,-5.6952108E-2,3.6942393E-2,1.16044074E-1,-6.98317E-2,7.872736E-3,-1.39838E-1,6.3837473E-3,-2.5329677E-2,3.0125512E-2,-6.919135E-2,-7.4549676E-3,5.4855525E-2,-2.0236254E-2,1.2356495E-1,7.7088655E-4,5.3115357E-3,-7.147493E-2,3.9218012E-2,-4.51193E-2,-2.535159E-3,-4.696074E-3,-6.895188E-4,7.856401E-2,-4.4333667E-4,-1.453576E-3,-1.3311722E-3,1.146364E-3,-4.1209315E-3,-1.7309069E-3,-1.7819381E-3,2.1517876E-4,2.0810475E-3,1.1067127E-3,-7.240257E-4,6.13467E-4,4.8469873E-3,3.3034578E-3,-2.6562216E-3,-1.7934873E-3,-2.3054203E-3,1.6096008E-3,-3.6931952E-4,-1.594462E-3,1.9458222E-3,-1.8484563E-4,7.512886E-4,3.1707755E-3],"categories":[],"categories_nodes":[],"categories_segments":[],"categories_sizes":[],"default_left":[0,0,0,0,0,0,0,0,0,0,0,0,0,0,0,0,0,0,0,0,0,0,0,0,0,0,0,0,0,0,0,0,0,0,0,0,0,0,0,0,0,0,0,0,0,0,0,0,0,0,0,0,0,0,0],"id":15,"left_children":[1,3,5,7,9,11,13,15,17,19,21,23,25,27,29,31,33,35,37,39,41,43,-1,-1,45,47,49,-1,-1,51,53,-1,-1,-1,-1,-1,-1,-1,-1,-1,-1,-1,-1,-1,-1,-1,-1,-1,-1,-1,-1,-1,-1,-1,-1],"loss_changes":[3.6978085E1,2.46255E1,1.365115E1,1.0046335E1,7.230301E0,1.4162613E1,4.204917E0,5.3572593E0,1.2183695E0,1.7884243E0,2.3288536E0,3.9218483E0,5.1526856E0,1.7340684E-1,3.8041637E0,5.2288115E-1,5.579055E0,1.2560396E0,3.043463E-1,3.4394145E-1,6.6624805E-2,1.6013908E0,0E0,0E0,1.9048386E0,3.2695644E0,3.0308604E-1,0E0,0E0,2.4348364E0,9.628973E-1,0E0,0E0,0E0,0E0,0E0,0E0,0E0,0E0,0E0,0E0,0E0,0E0,0E0,0E0,0E0,0E0,0E0,0E0,0E0,0E0,0E0,0E0,0E0,0E0],"parents":[2147483647,0,0,1,1,2,2,3,3,4,4,5,5,6,6,7,7,8,8,9,9,10,10,11,11,12,12,13,13,14,14,15,15,16,16,17,17,18,18,19,19,20,20,21,21,24,24,25,25,26,26,29,29,30,30],"right_children":[2,4,6,8,10,12,14,16,18,20,22,24,26,28,30,32,34,36,38,40,42,44,-1,-1,46,48,50,-1,-1,52,54,-1,-1,-1,-1,-1,-1,-1,-1,-1,-1,-1,-1,-1,-1,-1,-1,-1,-1,-1,-1,-1,-1,-1,-1],"split_conditions":[1.7148631E0,-8.498413E0,6.602597E0,2.9648328E0,6.595025E0,3.327061E-2,-7.764291E-1,2.5646794E-1,4.4262296E-1,4.6380367E0,1.4420443E0,-5.506724E0,1.8721875E0,8.393396E1,9.616364E0,2.0879166E0,5.972746E0,5.8992834E0,1.835193E0,8.434431E1,-4.38357E0,-4.8296704E0,7.7088655E-4,5.3115357E-3,6.151536E0,8.729868E-2,-1.3593043E1,-2.535159E-3,-4.696074E-3,7.8986585E-2,1.594203E-1,-4.4333667E-4,-1.453576E-3,-1.3311722E-3,1.146364E-3,-4.1209315E-3,-1.7309069E-3,-1.7819381E-3,2.1517876E-4,2.0810475E-3,1.1067127E-3,-7.240257E-4,6.13467E-4,4.8469873E-3,3.3034578E-3,-2.6562216E-3,-1.7934873E-3,-2.3054203E-3,1.6096008E-3,-3.6931952E-4,-1.594462E-3,1.9458222E-3,-1.8484563E-4,7.512886E-4,3.1707755E-3],"split_indices":[9,11,4,25,4,31,3,14,14,16,3,2,9,1,12,3,4,7,3,1,2,2,0,0,4,3,11,0,0,10,10,0,0,0,0,0,0,0,0,0,0,0,0,0,0,0,0,0,0,0,0,0,0,0,0],"split_type":[0,0,0,0,0,0,0,0,0,0,0,0,0,0,0,0,0,0,0,0,0,0,0,0,0,0,0,0,0,0,0,0,0,0,0,0,0,0,0,0,0,0,0,0,0,0,0,0,0,0,0,0,0,0,0],"sum_hessian":[3.8974E4,1.8588E4,2.0386E4,1.3413E4,5.175E3,1.2735E4,7.651E3,1.1402E4,2.011E3,1.744E3,3.431E3,9.635E3,3.1E3,2.01E2,7.45E3,2.145E3,9.257E3,1.612E3,3.99E2,1.328E3,4.16E2,3.167E3,2.64E2,6.3E1,9.572E3,1.948E3,1.152E3,4.8E1,1.53E2,6.786E3,6.64E2,1.474E3,6.71E2,9.06E2,8.351E3,2.31E2,1.381E3,8.7E1,3.12E2,7.33E2,5.95E2,3.8E2,3.6E1,8.25E2,2.342E3,3.889E3,5.683E3,2.15E2,1.733E3,2.27E2,9.25E2,5.22E2,6.264E3,2.24E2,4.4E2],"tree_param":{"num_deleted":"0","num_feature":"46","num_nodes":"55","size_leaf_vector":"1"}},{"base_weights":[5.232461E-3,8.337518E-2,-7.611113E-3,2.3612877E-2,1.1522521E-1,2.5678696E-2,-2.772301E-2,5.004489E-3,7.7340685E-2,1.3016494E-1,3.8796782E-2,1.1922999E-3,5.05408E-2,5.496398E-2,-3.6002606E-2,2.1776004E-2,-3.5638774E-3,3.348968E-3,1.5506396E-3,3.024226E-3,1.5315288E-1,8.626353E-3,1.9808132E-3,1.07950844E-1,-4.9885735E-3,-3.0432711E-3,5.4493558E-2,7.208924E-2,-1.3308203E-1,-4.2553954E-2,8.258036E-2,5.037831E-4,7.4784685E-4,4.755181E-5,-1.7725797E-4,4.924308E-3,4.292813E-3,3.737072E-4,2.3225968E-4,9.426742E-4,3.607805E-3,-3.4143955E-3,1.6824168E-5,-1.4380874E-3,1.7249655E-3,1.9567681E-4,2.628068E-3,-3.143083E-3,-4.4671646E-3,-1.8752689E-3,-7.3946285E-4,1.8527366E-3,4.1587194E-3],"categories":[],"categories_nodes":[],"categories_segments":[],"categories_sizes":[],"default_left":[0,0,0,0,0,0,0,0,0,0,0,0,0,0,0,0,0,0,0,0,0,0,0,0,0,0,0,0,0,0,0,0,0,0,0,0,0,0,0,0,0,0,0,0,0,0,0,0,0,0,0,0,0],"id":16,"left_children":[1,3,5,7,9,11,13,15,17,19,21,23,25,27,29,31,33,-1,-1,-1,35,37,-1,39,41,-1,43,45,47,49,51,-1,-1,-1,-1,-1,-1,-1,-1,-1,-1,-1,-1,-1,-1,-1,-1,-1,-1,-1,-1,-1,-1],"loss_changes":[3.543586E1,9.483982E0,2.0303276E1,1.7332451E0,3.7070084E0,6.9528546E0,1.2943941E1,1.8531267E-1,3.865633E-1,1.819519E0,4.3731683E-1,3.798039E0,3.4099932E0,5.5517936E0,1.3353384E1,6.430194E-3,1.0319559E-2,0E0,0E0,0E0,1.4488983E-1,7.640105E-4,0E0,2.9295516E-1,3.2859325E0,0E0,1.7032204E0,1.6044712E0,4.891181E-2,5.8170605E0,1.041709E0,0E0,0E0,0E0,0E0,0E0,0E0,0E0,0E0,0E0,0E0,0E0,0E0,0E0,0E0,0E0,0E0,0E0,0E0,0E0,0E0,0E0,0E0],"parents":[2147483647,0,0,1,1,2,2,3,3,4,4,5,5,6,6,7,7,8,8,9,9,10,10,11,11,12,12,13,13,14,14,15,15,16,16,20,20,21,21,23,23,24,24,26,26,27,27,28,28,29,29,30,30],"right_children":[2,4,6,8,10,12,14,16,18,20,22,24,26,28,30,32,34,-1,-1,-1,36,38,-1,40,42,-1,44,46,48,50,52,-1,-1,-1,-1,-1,-1,-1,-1,-1,-1,-1,-1,-1,-1,-1,-1,-1,-1,-1,-1,-1,-1],"split_conditions":[9.055162E2,-7.3155556E0,1.6925238E0,1.4680519E0,1.7632803E0,-2.1492865E0,-6.0487676E-1,2.65E2,1.98E2,5.7439446E0,2.09E2,4.571824E0,-5.410275E-1,-3.7392206E0,1.9476355E1,1.74E2,2.7E2,3.348968E-3,1.5506396E-3,3.024226E-3,-4.8296704E0,4.6E1,1.9808132E-3,4.5E1,-1.6985382E1,-3.0432711E-3,2.4025728E-1,-1.1380953E1,5.5E1,1.4966468E1,8.3613014E1,5.037831E-4,7.4784685E-4,4.755181E-5,-1.7725797E-4,4.924308E-3,4.292813E-3,3.737072E-4,2.3225968E-4,9.426742E-4,3.607805E-3,-3.4143955E-3,1.6824168E-5,-1.4380874E-3,1.7249655E-3,1.9567681E-4,2.628068E-3,-3.143083E-3,-4.4671646E-3,-1.8752689E-3,-7.3946285E-4,1.8527366E-3,4.1587194E-3],"split_indices":[5,11,9,12,9,22,28,0,0,7,0,7,28,2,17,0,0,0,0,0,2,0,0,0,16,0,14,11,0,17,1,0,0,0,0,0,0,0,0,0,0,0,0,0,0,0,0,0,0,0,0,0,0],"split_type":[0,0,0,0,0,0,0,0,0,0,0,0,0,0,0,0,0,0,0,0,0,0,0,0,0,0,0,0,0,0,0,0,0,0,0,0,0,0,0,0,0,0,0,0,0,0,0,0,0,0,0,0,0],"sum_hessian":[3.5306E4,4.983E3,3.0323E4,1.733E3,3.25E3,1.142E4,1.8903E4,1.288E3,4.45E2,2.718E3,5.32E2,5.754E3,5.666E3,1.72E3,1.7183E4,4.35E2,8.53E2,1.89E2,2.56E2,1.196E3,1.522E3,2.53E2,2.79E2,3.14E2,5.44E3,1.43E2,5.523E3,1.577E3,1.43E2,1.6284E4,8.99E2,1.71E2,2.64E2,2.67E2,5.86E2,7.2E2,8.02E2,4.5E1,2.08E2,4.4E1,2.7E2,2.63E2,5.177E3,1.57E2,5.366E3,3.02E2,1.275E3,5.4E1,8.9E1,7.7E3,8.584E3,6.57E2,2.42E2],"tree_param":{"num_deleted":"0","num_feature":"46","num_nodes":"53","size_leaf_vector":"1"}},{"base_weights":[8.7508897E-4,8.654513E-2,-1.1144022E-2,9.794714E-3,1.16173714E-1,-4.9387764E-2,3.666333E-3,-1.294929E-2,3.1932954E-2,1.3137148E-1,4.3278035E-2,-8.808232E-3,-6.660653E-2,-2.3080092E-3,7.5421415E-2,-1.828415E-3,-1.7194908E-4,1.5043013E-3,2.1125589E-2,2.8792715E-3,1.470458E-1,2.2532554E-4,6.1719883E-2,-4.9761973E-2,3.5589125E-2,-7.23494E-2,7.8146637E-4,1.8441582E-2,-2.955789E-2,1.3607134E-1,6.1273236E-2,4.8875756E-4,7.254958E-4,4.776784E-3,4.205951E-3,1.678589E-3,1.9216011E-3,-6.813366E-4,-3.613225E-3,-1.7202087E-3,1.28445E-3,-2.0140293E-3,-3.242177E-3,7.1675767E-4,-1.4709594E-3,-1.4507854E-3,-3.6061255E-4,6.119596E-3,3.8747129E-3,2.7613195E-3,1.2487532E-3],"categories":[],"categories_nodes":[],"categories_segments":[],"categories_sizes":[],"default_left":[0,0,0,0,0,0,0,0,0,0,0,0,0,0,0,0,0,0,0,0,0,0,0,0,0,0,0,0,0,0,0,0,0,0,0,0,0,0,0,0,0,0,0,0,0,0,0,0,0,0,0],"id":17,"left_children":[1,3,5,7,9,11,13,15,17,19,21,23,25,27,29,-1,-1,-1,31,-1,33,-1,35,37,39,41,-1,43,45,47,49,-1,-1,-1,-1,-1,-1,-1,-1,-1,-1,-1,-1,-1,-1,-1,-1,-1,-1,-1,-1],"loss_changes":[4.098317E1,1.113467E1,1.9770493E1,6.877078E-1,3.9083595E0,6.8078346E0,1.0786858E1,2.331459E-1,1.3513088E-1,1.6075821E0,4.0255976E-1,5.281934E0,3.6420326E0,1.3134778E1,1.6511993E0,0E0,0E0,0E0,6.0498416E-3,0E0,1.4648438E-1,0E0,1.8393993E-3,2.88617E0,9.3852115E-1,1.1928864E0,0E0,4.851108E0,3.3105974E0,1.4505196E-1,9.453716E-1,0E0,0E0,0E0,0E0,0E0,0E0,0E0,0E0,0E0,0E0,0E0,0E0,0E0,0E0,0E0,0E0,0E0,0E0,0E0,0E0],"parents":[2147483647,0,0,1,1,2,2,3,3,4,4,5,5,6,6,7,7,8,8,9,9,10,10,11,11,12,12,13,13,14,14,18,18,20,20,22,22,23,23,24,24,25,25,27,27,28,28,29,29,30,30],"right_children":[2,4,6,8,10,12,14,16,18,20,22,24,26,28,30,-1,-1,-1,32,-1,34,-1,36,38,40,42,-1,44,46,48,50,-1,-1,-1,-1,-1,-1,-1,-1,-1,-1,-1,-1,-1,-1,-1,-1,-1,-1,-1,-1],"split_conditions":[9.055162E2,-7.3155556E0,1.7844944E1,6.571786E0,-1.005824E0,1.991342E-1,8.181818E0,8.8E1,-4.6077356E0,5.7757955E0,-4.699386E0,9.2713165E1,6.5726027E0,1.7643011E0,-3.4142888E0,-1.828415E-3,-1.7194908E-4,1.5043013E-3,1.74E2,2.8792715E-3,-4.8296704E0,2.2532554E-4,1.27E2,4.439429E0,6.9E1,6.359432E0,7.8146637E-4,1.469883E1,5.924514E0,3.2E1,5.6867857E0,4.8875756E-4,7.254958E-4,4.776784E-3,4.205951E-3,1.678589E-3,1.9216011E-3,-6.813366E-4,-3.613225E-3,-1.7202087E-3,1.28445E-3,-2.0140293E-3,-3.242177E-3,7.1675767E-4,-1.4709594E-3,-1.4507854E-3,-3.6061255E-4,6.119596E-3,3.8747129E-3,2.7613195E-3,1.2487532E-3],"split_indices":[5,11,34,4,27,10,12,0,2,7,2,15,4,9,18,0,0,0,0,0,2,0,0,12,0,7,0,37,7,0,7,0,0,0,0,0,0,0,0,0,0,0,0,0,0,0,0,0,0,0,0],"split_type":[0,0,0,0,0,0,0,0,0,0,0,0,0,0,0,0,0,0,0,0,0,0,0,0,0,0,0,0,0,0,0,0,0,0,0,0,0,0,0,0,0,0,0,0,0,0,0,0,0,0,0],"sum_hessian":[3.98E4,4.896E3,3.4904E4,1.364E3,3.532E3,9.743E3,2.5161E4,6.73E2,6.91E2,2.922E3,6.1E2,2.903E3,6.84E3,2.3228E4,1.933E3,8.7E1,5.86E2,2.56E2,4.35E2,8.99E2,2.023E3,2.08E2,4.02E2,1.51E3,1.393E3,6.441E3,3.99E2,1.3187E4,1.0041E4,3.64E2,1.569E3,1.71E2,2.64E2,7.2E2,1.303E3,1.23E2,2.79E2,1.093E3,4.17E2,1E2,1.293E3,5.623E3,8.18E2,1.2202E4,9.85E2,4.845E3,5.196E3,3.1E1,3.33E2,6.1E2,9.59E2],"tree_param":{"num_deleted":"0","num_feature":"46","num_nodes":"51","size_leaf_vector":"1"}},{"base_weights":[-9.051793E-4,8.973108E-2,-1.2531567E-2,4.5447726E-2,1.1940203E-1,1.4582245E-2,-2.9708412E-2,8.272674E-2,2.2571456E-2,1.4060666E-1,2.8472696E-3,-4.399405E-2,2.2629697E-2,-5.0278362E-2,1.85669E-3,1.9009351E-3,1.01431556E-1,3.7638836E-2,3.6581599E-3,4.582412E-3,1.3404407E-1,-4.9416523E-2,3.9830552E-3,5.897554E-3,5.3382795E-2,3.948701E-2,-5.3284537E-2,-8.532145E-3,9.3278706E-2,2.7766204E-3,3.2273766E-3,4.4229906E-4,1.5184301E-3,2.1859782E-4,2.4446183E-5,3.8646683E-3,4.1384473E-3,-1.0647272E-3,-3.3186788E-3,-7.3148153E-4,8.358518E-4,5.3081574E-4,1.988367E-3,1.8470254E-3,7.270241E-4,5.042516E-3,-1.6339575E-3,2.023239E-3,-5.0376303E-4,4.9757925E-3,2.5646507E-3],"categories":[],"categories_nodes":[],"categories_segments":[],"categories_sizes":[],"default_left":[0,0,0,0,0,0,0,0,0,0,0,0,0,0,0,0,0,0,0,0,0,0,0,0,0,0,0,0,0,0,0,0,0,0,0,0,0,0,0,0,0,0,0,0,0,0,0,0,0,0,0],"id":18,"left_children":[1,3,5,7,9,11,13,15,17,19,-1,21,23,25,27,-1,29,31,33,-1,35,37,-1,39,41,43,45,47,49,-1,-1,-1,-1,-1,-1,-1,-1,-1,-1,-1,-1,-1,-1,-1,-1,-1,-1,-1,-1,-1,-1],"loss_changes":[3.983688E1,5.641838E0,1.5605175E1,1.4700735E0,1.3229828E0,6.126708E0,1.3318382E1,2.3115444E-1,3.050692E-1,8.9235306E-2,0E0,1.51139E0,5.879107E0,3.3533745E0,7.6882205E0,0E0,8.16226E-3,1.7631418E-1,4.9048024E-3,0E0,6.1798096E-4,1.2950287E0,0E0,4.9229445E0,1.8517866E0,1.3423485E-1,3.1500816E0,4.562701E0,4.5286703E-1,0E0,0E0,0E0,0E0,0E0,0E0,0E0,0E0,0E0,0E0,0E0,0E0,0E0,0E0,0E0,0E0,0E0,0E0,0E0,0E0,0E0,0E0],"parents":[2147483647,0,0,1,1,2,2,3,3,4,4,5,5,6,6,7,7,8,8,9,9,11,11,12,12,13,13,14,14,16,16,17,17,18,18,20,20,21,21,23,23,24,24,25,25,26,26,27,27,28,28],"right_children":[2,4,6,8,10,12,14,16,18,20,-1,22,24,26,28,-1,30,32,34,-1,36,38,-1,40,42,44,46,48,50,-1,-1,-1,-1,-1,-1,-1,-1,-1,-1,-1,-1,-1,-1,-1,-1,-1,-1,-1,-1,-1,-1],"split_conditions":[8.725175E2,2.8E2,1.6925238E0,-3.3650465E0,-4.584047E0,-5.2974415E0,6.602597E0,6.564706E0,1.6416273E0,-4.8296704E0,2.8472696E-3,5.8544827E0,2.2911792E3,-1.0089294E0,2.096792E-1,1.9009351E-3,1.43E2,8.485663E1,2.09E2,4.582412E-3,4.01E2,1.00685336E-1,3.9830552E-3,6.358774E0,-3.1785122E-1,1.64E2,-5.506724E0,-6.099487E-1,7.9E1,2.7766204E-3,3.2273766E-3,4.4229906E-4,1.5184301E-3,2.1859782E-4,2.4446183E-5,3.8646683E-3,4.1384473E-3,-1.0647272E-3,-3.3186788E-3,-7.3148153E-4,8.358518E-4,5.3081574E-4,1.988367E-3,1.8470254E-3,7.270241E-4,5.042516E-3,-1.6339575E-3,2.023239E-3,-5.0376303E-4,4.9757925E-3,2.5646507E-3],"split_indices":[5,0,9,25,2,25,4,4,3,2,0,12,21,12,29,0,0,1,0,0,0,31,0,20,28,0,2,28,0,0,0,0,0,0,0,0,0,0,0,0,0,0,0,0,0,0,0,0,0,0,0],"split_type":[0,0,0,0,0,0,0,0,0,0,0,0,0,0,0,0,0,0,0,0,0,0,0,0,0,0,0,0,0,0,0,0,0,0,0,0,0,0,0,0,0,0,0,0,0,0,0,0,0,0,0],"sum_hessian":[3.7802E4,4.297E3,3.3505E4,1.725E3,2.572E3,1.2994E4,2.0511E4,6.55E2,1.07E3,1.376E3,1.196E3,1.569E3,1.1425E4,1.2418E4,8.093E3,3.24E2,3.31E2,5.95E2,4.75E2,4.75E2,9.01E2,1.523E3,4.6E1,7.4E3,4.025E3,4.02E2,1.2016E4,7.268E3,8.25E2,1.42E2,1.89E2,2.16E2,3.79E2,2.08E2,2.67E2,4E2,5.01E2,1.242E3,2.81E2,3.111E3,4.289E3,1.069E3,2.956E3,1.63E2,2.39E2,6.3E1,1.1953E4,7.12E2,6.556E3,7.8E1,7.47E2],"tree_param":{"num_deleted":"0","num_feature":"46","num_nodes":"51","size_leaf_vector":"1"}},{"base_weights":[3.1807105E-4,7.4835554E-2,-8.50661E-3,-5.0833835E-3,9.93429E-2,-2.3643425E-2,2.3146024E-2,2.3713224E-2,-1.6269775E-2,7.0880786E-2,1.29411E-1,-5.9310347E-2,-4.1752285E-3,-8.149652E-3,4.2921342E-2,2.0276767E-3,1.43030435E-2,-1.7989774E-3,-2.9074078E-4,2.9226793E-2,8.837692E-2,1.4221357E-1,2.6755715E-3,1.8715883E-2,-6.967318E-2,4.5966424E-2,-1.3911765E-2,-2.1870548E-3,-3.489199E-3,-2.874822E-3,5.4677557E-2,3.0049603E-4,4.6098835E-4,2.120712E-4,1.4139722E-3,1.583452E-3,2.7837183E-3,4.5482474E-3,3.7490174E-3,1.0280034E-3,-1.6416714E-3,-1.9386439E-3,-3.1795073E-3,1.2280564E-3,4.4990694E-3,5.110208E-4,-8.897899E-4,-2.8502772E-4,1.7292115E-3,2.6116816E-3,-1.3295695E-3,1.0026793E-3,2.2605148E-3],"categories":[],"categories_nodes":[],"categories_segments":[],"categories_sizes":[],"default_left":[0,0,0,0,0,0,0,0,0,0,0,0,0,0,0,0,0,0,0,0,0,0,0,0,0,0,0,0,0,0,0,0,0,0,0,0,0,0,0,0,0,0,0,0,0,0,0,0,0,0,0,0,0],"id":19,"left_children":[1,3,5,7,9,11,13,15,17,19,21,23,25,27,29,-1,31,-1,-1,33,35,37,-1,39,41,43,45,47,-1,49,51,-1,-1,-1,-1,-1,-1,-1,-1,-1,-1,-1,-1,-1,-1,-1,-1,-1,-1,-1,-1,-1,-1],"loss_changes":[2.4717587E1,7.7957325E0,1.6102814E1,3.0157748E-1,2.597601E0,1.5786962E1,6.7294536E0,1.0720809E-1,1.9316106E-1,1.1394205E0,7.4949837E-1,6.492525E0,7.181661E0,2.715405E0,3.5874462E0,0E0,8.3507225E-4,0E0,0E0,1.8415469E-1,1.6839123E-1,1.6268349E-1,0E0,1.0776682E0,1.2931175E0,1.2454953E0,6.0034504E0,1.7473274E0,0E0,5.080182E0,2.3271894E0,0E0,0E0,0E0,0E0,0E0,0E0,0E0,0E0,0E0,0E0,0E0,0E0,0E0,0E0,0E0,0E0,0E0,0E0,0E0,0E0,0E0,0E0],"parents":[2147483647,0,0,1,1,2,2,3,3,4,4,5,5,6,6,7,7,8,8,9,9,10,10,11,11,12,12,13,13,14,14,16,16,19,19,20,20,21,21,23,23,24,24,25,25,26,26,27,27,29,29,30,30],"right_children":[2,4,6,8,10,12,14,16,18,20,22,24,26,28,30,-1,32,-1,-1,34,36,38,-1,40,42,44,46,48,-1,50,52,-1,-1,-1,-1,-1,-1,-1,-1,-1,-1,-1,-1,-1,-1,-1,-1,-1,-1,-1,-1,-1,-1],"split_conditions":[9.055162E2,6.5435386E0,9.53023E1,8.3722955E2,7.62213E2,1.7844944E1,-1.1607273E1,-5.8961165E-1,8.8E1,-4.6077356E0,-4.584047E0,5.514329E0,-4.6609306E0,-4.771163E0,1.2280702E-1,2.0276767E-3,4.6E1,-1.7989774E-3,-2.9074078E-4,2.09E2,1.27E2,-4.8296704E0,2.6755715E-3,-3.1970053E0,6.359432E0,1.3004594E3,1.628481E0,4.5042E0,-3.489199E-3,1.2441137E1,4.2761706E-2,3.0049603E-4,4.6098835E-4,2.120712E-4,1.4139722E-3,1.583452E-3,2.7837183E-3,4.5482474E-3,3.7490174E-3,1.0280034E-3,-1.6416714E-3,-1.9386439E-3,-3.1795073E-3,1.2280564E-3,4.4990694E-3,5.110208E-4,-8.897899E-4,-2.8502772E-4,1.7292115E-3,2.6116816E-3,-1.3295695E-3,1.0026793E-3,2.2605148E-3],"split_indices":[5,20,15,5,5,34,11,8,0,2,2,23,2,16,10,0,0,0,0,0,0,2,0,18,7,5,9,12,0,38,29,0,0,0,0,0,0,0,0,0,0,0,0,0,0,0,0,0,0,0,0,0,0],"split_type":[0,0,0,0,0,0,0,0,0,0,0,0,0,0,0,0,0,0,0,0,0,0,0,0,0,0,0,0,0,0,0,0,0,0,0,0,0,0,0,0,0,0,0,0,0,0,0,0,0,0,0,0,0],"sum_hessian":[3.7586E4,3.979E3,3.3607E4,9.34E2,3.045E3,2.2735E4,1.0872E4,2.61E2,6.73E2,1.566E3,1.479E3,8.027E3,1.4708E4,4.21E3,6.662E3,4.5E1,2.16E2,8.7E1,5.86E2,4.64E2,1.102E3,1.12E3,3.59E2,9.41E2,7.086E3,2.391E3,1.2317E4,3.991E3,2.19E2,1.361E3,5.301E3,4.5E1,1.71E2,2.08E2,2.56E2,1.23E2,9.79E2,7.2E2,4E2,7.77E2,1.64E2,6.223E3,8.63E2,2.282E3,1.09E2,4.154E3,8.163E3,3.557E3,4.34E2,4.29E2,9.32E2,2.615E3,2.686E3],"tree_param":{"num_deleted":"0","num_feature":"46","num_nodes":"53","size_leaf_vector":"1"}},{"base_weights":[1.5086742E-4,8.7324925E-2,-8.255498E-3,4.0107043E-3,7.120152E-2,-4.5315493E-2,2.8590884E-3,8.208575E-2,1.3922267E-3,5.53856E-2,-5.3312916E-2,2.2308726E-2,-2.0281045E-2,8.5870534E-2,1.6517771E-3,1.937914E-3,1.2885917E-3,-9.730089E-3,-6.553288E-2,1.6013462E-2,1.0681969E-1,-2.9724829E-2,2.9369991E-2,2.3069757E-3,2.6998278E-3,3.4225272E-4,-7.258728E-4,-2.1448073E-3,-4.4461366E-4,4.076235E-4,4.5932033E-3,2.5955276E-3,3.5154657E-3,-1.3534932E-3,-2.6456476E-4,1.5428445E-3,-2.865909E-3],"categories":[],"categories_nodes":[],"categories_segments":[],"categories_sizes":[],"default_left":[0,0,0,0,0,0,0,0,0,0,0,0,0,0,0,0,0,0,0,0,0,0,0,0,0,0,0,0,0,0,0,0,0,0,0,0,0],"id":20,"left_children":[1,3,5,-1,7,9,11,13,-1,15,17,19,21,23,-1,-1,-1,25,27,29,31,33,35,-1,-1,-1,-1,-1,-1,-1,-1,-1,-1,-1,-1,-1,-1],"loss_changes":[2.9229126E1,2.6129417E0,1.4984465E1,0E0,6.9918346E-1,6.762253E0,1.2596033E1,1.8031311E-1,0E0,6.8000436E-2,4.140707E0,8.088167E0,5.9938025E0,5.171776E-2,0E0,0E0,0E0,5.213299E-1,1.8346939E0,4.7050657E0,2.1160221E-1,3.4551659E0,5.633522E0,0E0,0E0,0E0,0E0,0E0,0E0,0E0,0E0,0E0,0E0,0E0,0E0,0E0,0E0],"parents":[2147483647,0,0,1,1,2,2,4,4,5,5,6,6,7,7,9,9,10,10,11,11,12,12,13,13,17,17,18,18,19,19,20,20,21,21,22,22],"right_children":[2,4,6,-1,8,10,12,14,-1,16,18,20,22,24,-1,-1,-1,26,28,30,32,34,36,-1,-1,-1,-1,-1,-1,-1,-1,-1,-1,-1,-1,-1,-1],"split_conditions":[-1.1306199E1,8.1512E1,6.114576E0,4.0107043E-3,-9.487598E0,-1.571878E0,1.7657223E0,8.4583336E1,1.3922267E-3,8.4016785E1,-1.285814E0,2.3117638E-1,6.8034782E0,6.928775E-1,1.6517771E-3,1.937914E-3,1.2885917E-3,-7.795897E0,-3.4689963E0,6.4152565E0,1.0538293E0,6.602597E0,-4.1517243E0,2.3069757E-3,2.6998278E-3,3.4225272E-4,-7.258728E-4,-2.1448073E-3,-4.4461366E-4,4.076235E-4,4.5932033E-3,2.5955276E-3,3.5154657E-3,-1.3534932E-3,-2.6456476E-4,1.5428445E-3,-2.865909E-3],"split_indices":[24,1,4,0,26,3,9,1,0,1,27,31,12,3,0,0,0,24,26,7,3,4,16,0,0,0,0,0,0,0,0,0,0,0,0,0,0],"split_type":[0,0,0,0,0,0,0,0,0,0,0,0,0,0,0,0,0,0,0,0,0,0,0,0,0,0,0,0,0,0,0,0,0,0,0,0,0],"sum_hessian":[3.9884E4,3.507E3,3.6377E4,9.03E2,2.604E3,8.392E3,2.7985E4,1.808E3,7.96E2,6.17E2,7.775E3,1.5205E4,1.278E4,1.584E3,2.24E2,3.52E2,2.65E2,1.703E3,6.072E3,1.4152E4,1.053E3,1.0738E4,2.042E3,5.05E2,1.079E3,6.92E2,1.011E3,5.433E3,6.39E2,1.3907E4,2.45E2,3.59E2,6.94E2,6.184E3,4.554E3,1.736E3,3.06E2],"tree_param":{"num_deleted":"0","num_feature":"46","num_nodes":"37","size_leaf_vector":"1"}},{"base_weights":[-2.1791477E-3,-2.6184669E-2,1.9367456E-2,-4.5623787E-2,9.404701E-3,9.3222186E-2,1.2749661E-2,3.0081747E-2,-4.8708472E-2,-5.7911783E-2,2.1604689E-2,7.371186E-2,4.2282427E-3,-2.9094417E-2,2.4768371E-2,1.5803029E-4,4.4588704E-2,-7.0173986E-2,-3.7295558E-2,-1.6995972E-2,-8.354127E-2,6.71656E-2,1.0693269E-2,1.361187E-3,8.1061E-2,-3.4001893E-3,-2.1995667E-2,3.577123E-2,-2.7339185E-2,8.647964E-4,1.5424213E-3,-2.4585365E-3,-1.2590667E-3,-1.4022999E-3,9.998845E-5,-1.0619011E-5,-8.0600544E-4,-4.514559E-3,-2.3346485E-3,1.9563599E-4,2.7727557E-3,1.6690089E-4,2.426276E-3,2.1174797E-3,2.5687825E-3,-9.962091E-4,2.4325015E-4,1.1979495E-3,-2.6411323E-3,1.8061002E-3,-1.2963832E-3],"categories":[],"categories_nodes":[],"categories_segments":[],"categories_sizes":[],"default_left":[0,0,0,0,0,0,0,0,0,0,0,0,0,0,0,0,0,0,0,0,0,0,0,0,0,0,0,0,0,0,0,0,0,0,0,0,0,0,0,0,0,0,0,0,0,0,0,0,0,0,0],"id":21,"left_children":[1,3,5,7,9,11,13,15,17,19,21,23,-1,25,27,-1,29,31,33,35,37,39,41,-1,43,-1,45,47,49,-1,-1,-1,-1,-1,-1,-1,-1,-1,-1,-1,-1,-1,-1,-1,-1,-1,-1,-1,-1,-1,-1],"loss_changes":[1.9622944E1,1.2415246E1,9.770501E0,2.7117882E0,5.2080417E0,1.5202055E0,9.229153E0,1.6355443E-1,2.7294464E0,1.018918E0,2.6678984E0,2.3978615E-1,0E0,2.4464633E0,8.174399E0,0E0,2.9393971E-2,1.2820873E0,2.7957268E0,6.1756454E-2,2.1726084E-1,1.5879283E0,1.5592004E0,0E0,3.8298607E-2,0E0,1.2753632E0,6.0667305E0,3.4571824E0,0E0,0E0,0E0,0E0,0E0,0E0,0E0,0E0,0E0,0E0,0E0,0E0,0E0,0E0,0E0,0E0,0E0,0E0,0E0,0E0,0E0,0E0],"parents":[2147483647,0,0,1,1,2,2,3,3,4,4,5,5,6,6,7,7,8,8,9,9,10,10,11,11,13,13,14,14,16,16,17,17,18,18,19,19,20,20,21,21,22,22,24,24,26,26,27,27,28,28],"right_children":[2,4,6,8,10,12,14,16,18,20,22,24,-1,26,28,-1,30,32,34,36,38,40,42,-1,44,-1,46,48,50,-1,-1,-1,-1,-1,-1,-1,-1,-1,-1,-1,-1,-1,-1,-1,-1,-1,-1,-1,-1,-1,-1],"split_conditions":[-1.1502857E1,6.570588E0,-1.1428396E1,3.617397E0,1.5639181E1,3.99E2,-1.22487575E-1,-4.032921E0,1.2985923E1,1.6969184E0,-1.3100864E0,8.3328575E1,4.2282427E-3,-4.8673077E0,1.9980289E0,1.5803029E-4,8.9E1,3.8534687E-3,9.5760376E1,1.41E2,4.6E1,1.5350635E3,-7.03739E0,1.361187E-3,8.3613014E1,-3.4001893E-3,2.0808806E0,-3.7725682E0,9.426405E2,8.647964E-4,1.5424213E-3,-2.4585365E-3,-1.2590667E-3,-1.4022999E-3,9.998845E-5,-1.0619011E-5,-8.0600544E-4,-4.514559E-3,-2.3346485E-3,1.9563599E-4,2.7727557E-3,1.6690089E-4,2.426276E-3,2.1174797E-3,2.5687825E-3,-9.962091E-4,2.4325015E-4,1.1979495E-3,-2.6411323E-3,1.8061002E-3,-1.2963832E-3],"split_indices":[11,20,24,33,34,0,32,2,38,3,27,1,0,2,3,0,0,32,15,0,0,5,16,0,1,0,3,2,5,0,0,0,0,0,0,0,0,0,0,0,0,0,0,0,0,0,0,0,0,0,0],"split_type":[0,0,0,0,0,0,0,0,0,0,0,0,0,0,0,0,0,0,0,0,0,0,0,0,0,0,0,0,0,0,0,0,0,0,0,0,0,0,0,0,0,0,0,0,0,0,0,0,0,0,0],"sum_hessian":[3.7936E4,1.7944E4,1.9992E4,1.1605E4,6.339E3,1.643E3,1.8349E4,4.54E2,1.1151E4,9.72E2,5.367E3,1.168E3,4.75E2,4.094E3,1.4255E4,1.68E2,2.86E2,3.869E3,7.282E3,3.75E2,5.97E2,1.036E3,4.331E3,2.42E2,9.26E2,3.17E2,3.777E3,1.177E4,2.485E3,8.8E1,1.98E2,2.728E3,1.141E3,5.908E3,1.374E3,1.4E2,2.35E2,4.5E1,5.52E2,3.05E2,7.31E2,4.037E3,2.94E2,2.86E2,6.4E2,2.752E3,1.025E3,1.1388E4,3.82E2,3.81E2,2.104E3],"tree_param":{"num_deleted":"0","num_feature":"46","num_nodes":"51","size_leaf_vector":"1"}},{"base_weights":[1.7356204E-3,8.995461E-2,-7.356862E-3,1.2943861E-1,6.6436544E-2,-4.2415798E-2,3.3602896E-3,4.0088324E-3,3.655619E-3,7.825398E-2,1.313132E-3,-5.3991202E-2,-2.880201E-3,1.2245537E-2,-4.0106304E-2,8.2939096E-2,1.5257234E-3,3.9845016E-2,-6.0682677E-2,-5.010336E-2,4.081249E-2,7.447473E-3,8.021422E-2,-4.3501414E-2,4.723402E-3,2.312373E-3,2.5216802E-3,1.5331709E-4,1.8553818E-3,1.2816224E-3,-1.9424448E-3,-2.9164571E-3,-1.1187629E-3,5.6467426E-4,1.4601124E-3,-9.9074405E-6,9.3783176E-4,3.1050185E-3,5.03074E-4,-1.4313064E-3,2.1733623E-3],"categories":[],"categories_nodes":[],"categories_segments":[],"categories_sizes":[],"default_left":[0,0,0,0,0,0,0,0,0,0,0,0,0,0,0,0,0,0,0,0,0,0,0,0,0,0,0,0,0,0,0,0,0,0,0,0,0,0,0,0,0],"id":22,"left_children":[1,3,5,7,9,11,13,-1,-1,15,-1,17,19,21,23,25,-1,27,29,31,33,35,37,39,-1,-1,-1,-1,-1,-1,-1,-1,-1,-1,-1,-1,-1,-1,-1,-1,-1],"loss_changes":[3.1737719E1,3.424389E0,1.3477647E1,2.753067E-2,6.177139E-1,3.8431091E0,1.0610877E1,0E0,0E0,1.9126797E-1,0E0,4.081274E0,3.9285176E0,7.4384813E0,3.1343908E0,2.023697E-3,0E0,3.3058006E-1,2.551979E0,5.486345E-1,1.6997898E-1,3.946581E0,2.2202854E0,2.240922E0,0E0,0E0,0E0,0E0,0E0,0E0,0E0,0E0,0E0,0E0,0E0,0E0,0E0,0E0,0E0,0E0,0E0],"parents":[2147483647,0,0,1,1,2,2,3,3,4,4,5,5,6,6,9,9,11,11,12,12,13,13,14,14,15,15,17,17,18,18,19,19,20,20,21,21,22,22,23,23],"right_children":[2,4,6,8,10,12,14,-1,-1,16,-1,18,20,22,24,26,-1,28,30,32,34,36,38,40,-1,-1,-1,-1,-1,-1,-1,-1,-1,-1,-1,-1,-1,-1,-1,-1,-1],"split_conditions":[-1.1306199E1,8.182802E1,1.6733444E1,4.79E2,2.0039293E-1,5.1513538E-2,-7.159226E-1,4.0088324E-3,3.655619E-3,8.4583336E1,1.313132E-3,1.1039129E1,-1.2905993E0,2.1304615E-1,7.003306E0,2.24E2,1.5257234E-3,1.7E2,3.4556577E0,1.5318392E3,7.8E1,2.384732E3,9.54939E0,7.739551E0,4.723402E-3,2.312373E-3,2.5216802E-3,1.5331709E-4,1.8553818E-3,1.2816224E-3,-1.9424448E-3,-2.9164571E-3,-1.1187629E-3,5.6467426E-4,1.4601124E-3,-9.9074405E-6,9.3783176E-4,3.1050185E-3,5.03074E-4,-1.4313064E-3,2.1733623E-3],"split_indices":[24,1,34,0,10,31,27,0,0,1,0,34,27,31,4,0,0,0,37,5,0,21,37,12,0,0,0,0,0,0,0,0,0,0,0,0,0,0,0,0,0],"split_type":[0,0,0,0,0,0,0,0,0,0,0,0,0,0,0,0,0,0,0,0,0,0,0,0,0,0,0,0,0,0,0,0,0,0,0,0,0,0,0,0,0],"sum_hessian":[3.9565E4,3.696E3,3.5869E4,1.378E3,2.318E3,8.397E3,2.7472E4,8.77E2,5.01E2,1.522E3,7.96E2,6.495E3,1.902E3,2.281E4,4.662E3,1.298E3,2.24E2,4.32E2,6.063E3,9.14E2,9.88E2,2.1307E4,1.503E3,4.584E3,7.8E1,2.19E2,1.079E3,1.68E2,2.64E2,2.29E2,5.834E3,1.94E2,7.2E2,2.61E2,7.27E2,1.6062E4,5.245E3,1.099E3,4.04E2,4.424E3,1.6E2],"tree_param":{"num_deleted":"0","num_feature":"46","num_nodes":"41","size_leaf_vector":"1"}},{"base_weights":[-1.1509544E-3,7.216919E-2,-1.2029642E-2,4.0694818E-2,1.204476E-1,1.5199555E-2,-2.9057182E-2,9.873803E-4,7.9749815E-2,1.1295277E-1,3.888704E-3,5.309752E-3,5.6436565E-2,-5.5382624E-2,-1.0624605E-2,2.480606E-2,-1.3163129E-2,9.436134E-2,6.3781813E-3,3.4863898E-3,2.9064228E-3,3.3423815E-2,-1.2915713E-2,6.746098E-2,2.8072745E-2,-4.0849395E-2,-7.456961E-2,6.479354E-2,-1.8059237E-2,1.4888464E-3,5.306896E-4,-2.5036966E-4,-1.7929482E-3,2.453363E-3,4.392154E-3,3.3824783E-4,1.5809732E-4,2.5224296E-4,1.752332E-3,-2.3520079E-4,-3.6169197E-3,1.7023958E-3,2.6259145E-3,1.5545489E-3,1.2130353E-4,-1.5487456E-3,2.7150376E-4,-2.5845473E-3,-1.7081697E-3,2.5003233E-3,-4.2798654E-3,-6.961857E-4,1.9199082E-3],"categories":[],"categories_nodes":[],"categories_segments":[],"categories_sizes":[],"default_left":[0,0,0,0,0,0,0,0,0,0,0,0,0,0,0,0,0,0,0,0,0,0,0,0,0,0,0,0,0,0,0,0,0,0,0,0,0,0,0,0,0,0,0,0,0,0,0,0,0,0,0,0,0],"id":23,"left_children":[1,3,5,7,9,11,13,15,17,19,-1,21,23,25,27,29,31,33,35,-1,-1,37,39,41,43,45,47,49,51,-1,-1,-1,-1,-1,-1,-1,-1,-1,-1,-1,-1,-1,-1,-1,-1,-1,-1,-1,-1,-1,-1,-1,-1],"loss_changes":[3.0793259E1,7.5745296E0,1.5587302E1,4.6848083E0,1.20700836E-1,5.274928E0,1.0036232E1,5.055592E-1,1.632164E0,4.5907974E-2,0E0,5.3467283E0,7.80468E-1,2.3721905E0,6.823283E0,9.786636E-2,2.1075858E-1,8.1967926E-1,1.319021E-3,0E0,0E0,2.5648127E0,3.458243E0,3.8230896E-1,4.003439E-1,2.607726E0,7.444992E-1,4.2143674E0,4.679314E0,0E0,0E0,0E0,0E0,0E0,0E0,0E0,0E0,0E0,0E0,0E0,0E0,0E0,0E0,0E0,0E0,0E0,0E0,0E0,0E0,0E0,0E0,0E0,0E0],"parents":[2147483647,0,0,1,1,2,2,3,3,4,4,5,5,6,6,7,7,8,8,9,9,11,11,12,12,13,13,14,14,15,15,16,16,17,17,18,18,21,21,22,22,23,23,24,24,25,25,26,26,27,27,28,28],"right_children":[2,4,6,8,10,12,14,16,18,20,-1,22,24,26,28,30,32,34,36,-1,-1,38,40,42,44,46,48,50,52,-1,-1,-1,-1,-1,-1,-1,-1,-1,-1,-1,-1,-1,-1,-1,-1,-1,-1,-1,-1,-1,-1,-1,-1],"split_conditions":[9.055162E2,1.1242031E-1,1.6793815E0,2.296868E-1,8.5977686E2,1.682112E1,1.8097115E1,8.3722955E2,-1.16236145E-2,8.434409E1,3.888704E-3,5.463768E0,2.3267893E1,1.1587165E1,-6.099487E-1,6.904E2,8.844443E1,8.596607E1,8.2203575E1,3.4863898E-3,2.9064228E-3,6.5011363E0,4.0811044E-1,6.5755887E0,6.1480517E0,2.243281E3,1.6844296E3,-3.7392206E0,1.9476355E1,1.4888464E-3,5.306896E-4,-2.5036966E-4,-1.7929482E-3,2.453363E-3,4.392154E-3,3.3824783E-4,1.5809732E-4,2.5224296E-4,1.752332E-3,-2.3520079E-4,-3.6169197E-3,1.7023958E-3,2.6259145E-3,1.5545489E-3,1.2130353E-4,-1.5487456E-3,2.7150376E-4,-2.5845473E-3,-1.7081697E-3,2.5003233E-3,-4.2798654E-3,-6.961857E-4,1.9199082E-3],"split_indices":[5,31,9,35,5,17,34,5,32,1,0,7,34,17,28,5,1,1,1,0,0,4,35,4,4,21,5,2,17,0,0,0,0,0,0,0,0,0,0,0,0,0,0,0,0,0,0,0,0,0,0,0,0],"split_type":[0,0,0,0,0,0,0,0,0,0,0,0,0,0,0,0,0,0,0,0,0,0,0,0,0,0,0,0,0,0,0,0,0,0,0,0,0,0,0,0,0,0,0,0,0,0,0,0,0,0,0,0,0],"sum_hessian":[3.8604E4,4.987E3,3.3617E4,3.02E3,1.967E3,1.2934E4,2.0683E4,1.498E3,1.522E3,1.09E3,8.77E2,1.0433E4,2.501E3,8.517E3,1.2166E4,5.58E2,9.4E2,1.269E3,2.53E2,9.01E2,1.89E2,4.103E3,6.33E3,1.8E3,7.01E2,4.848E3,3.669E3,1.091E3,1.1075E4,1.23E2,4.35E2,8.53E2,8.7E1,1.024E3,2.45E2,4.5E1,2.08E2,2.051E3,2.052E3,6.046E3,2.84E2,1.176E3,6.24E2,3.52E2,3.49E2,3.987E3,8.61E2,2.212E3,1.457E3,1.002E3,8.9E1,1.0422E4,6.53E2],"tree_param":{"num_deleted":"0","num_feature":"46","num_nodes":"53","size_leaf_vector":"1"}},{"base_weights":[-2.5271438E-3,8.1667505E-2,-8.542038E-3,3.7721759E-3,5.655311E-2,1.48544265E-2,-2.7389392E-2,1.2655295E-3,7.1787566E-2,1.300247E-3,6.88919E-2,-4.48824E-2,3.671671E-3,2.2707873E-3,1.9575239E-3,1.0307049E-2,-3.9077774E-2,2.0958351E-2,8.135468E-2,-4.8688564E-2,5.6482233E-2,6.7131914E-2,-6.7745517E-3,-1.1933073E-3,6.5507396E-4,-8.8878E-5,-1.5049598E-3,4.6431838E-4,1.0251635E-3,3.4810044E-3,1.8864771E-3,-1.5432741E-3,1.6812122E-3,4.623397E-3,1.18601E-3,3.1486643E-4,3.1841525E-3,-3.8590436E-4,3.7277408E-3],"categories":[],"categories_nodes":[],"categories_segments":[],"categories_sizes":[],"default_left":[0,0,0,0,0,0,0,0,0,0,0,0,0,0,0,0,0,0,0,0,0,0,0,0,0,0,0,0,0,0,0,0,0,0,0,0,0,0,0],"id":24,"left_children":[1,3,5,-1,7,9,11,-1,13,15,17,19,21,-1,-1,23,25,27,29,31,33,35,37,-1,-1,-1,-1,-1,-1,-1,-1,-1,-1,-1,-1,-1,-1,-1,-1],"loss_changes":[1.8387861E1,2.672535E0,1.4943707E1,0E0,3.3495426E-1,1.1074307E1,1.0198327E1,0E0,1.4156342E-2,4.396892E0,1.8095646E0,4.6351776E0,4.483782E0,0E0,0E0,5.708521E0,8.82797E-1,4.488194E-2,1.533967E0,3.3406982E0,7.137041E-1,2.110869E0,4.6354985E0,0E0,0E0,0E0,0E0,0E0,0E0,0E0,0E0,0E0,0E0,0E0,0E0,0E0,0E0,0E0,0E0],"parents":[2147483647,0,0,1,1,2,2,4,4,5,5,6,6,8,8,9,9,10,10,11,11,12,12,15,15,16,16,17,17,18,18,19,19,20,20,21,21,22,22],"right_children":[2,4,6,-1,8,10,12,-1,14,16,18,20,22,-1,-1,24,26,28,30,32,34,36,38,-1,-1,-1,-1,-1,-1,-1,-1,-1,-1,-1,-1,-1,-1,-1,-1],"split_conditions":[-1.1306199E1,8.182802E1,1.7148631E0,3.7721759E-3,8.3328575E1,-8.498413E0,9.560604E1,1.2655295E-3,2.43E2,2.9648328E0,-5.9150293E-2,1.9295248E1,-6.1496633E-1,2.2707873E-3,1.9575239E-3,-4.902449E0,5.8924527E0,-1.3204226E-1,2.676519E-1,1.5551826E1,6.4E1,1.1299022E0,-4.007821E-1,-1.1933073E-3,6.5507396E-4,-8.8878E-5,-1.5049598E-3,4.6431838E-4,1.0251635E-3,3.4810044E-3,1.8864771E-3,-1.5432741E-3,1.6812122E-3,4.623397E-3,1.18601E-3,3.1486643E-4,3.1841525E-3,-3.8590436E-4,3.7277408E-3],"split_indices":[24,1,9,0,1,11,15,0,0,25,29,17,28,0,0,25,4,8,35,37,0,3,6,0,0,0,0,0,0,0,0,0,0,0,0,0,0,0,0],"split_type":[0,0,0,0,0,0,0,0,0,0,0,0,0,0,0,0,0,0,0,0,0,0,0,0,0,0,0,0,0,0,0,0,0,0,0,0,0,0,0],"sum_hessian":[3.6307E4,2.42E3,3.3887E4,8.77E2,1.543E3,1.5119E4,1.8768E4,7.96E2,7.47E2,1.2088E4,3.031E3,1.2006E4,6.762E3,4.61E2,2.86E2,9.884E3,2.204E3,6.26E2,2.405E3,1.1572E4,4.34E2,9.55E2,5.807E3,1.849E3,8.035E3,5.18E2,1.686E3,4.44E2,1.82E2,8.34E2,1.571E3,1.1276E4,2.96E2,6.3E1,3.71E2,3.9E2,5.65E2,5.55E3,2.57E2],"tree_param":{"num_deleted":"0","num_feature":"46","num_nodes":"39","size_leaf_vector":"1"}},{"base_weights":[2.0898718E-3,7.085471E-2,-7.8545045E-3,2.476592E-2,8.770424E-2,-2.9008032E-3,-5.8985148E-2,1.1028256E-2,8.580775E-2,9.815299E-2,3.8189948E-2,-2.7033612E-2,6.8420074E-3,-6.4643875E-2,4.885709E-2,-1.6951356E-3,1.7213715E-2,1.9334978E-3,2.7158093E-3,2.2988287E-3,1.13331996E-1,5.505028E-2,1.6489888E-4,-1.6082445E-2,-7.2523534E-2,-1.736372E-2,2.2468623E-2,-9.07636E-2,-5.3662963E-2,3.7139852E-3,3.9436744E-4,1.165477E-3,2.7839403E-4,3.268831E-3,4.15692E-3,1.4560254E-3,1.7321812E-3,-1.0176209E-3,8.489541E-4,-4.3373825E-3,-2.1135574E-3,9.159668E-5,-1.3535845E-3,-5.656579E-5,1.0360667E-3,-3.1169688E-3,-2.4678593E-3,3.2936985E-4,-1.724636E-3],"categories":[],"categories_nodes":[],"categories_segments":[],"categories_sizes":[],"default_left":[0,0,0,0,0,0,0,0,0,0,0,0,0,0,0,0,0,0,0,0,0,0,0,0,0,0,0,0,0,0,0,0,0,0,0,0,0,0,0,0,0,0,0,0,0,0,0,0,0],"id":25,"left_children":[1,3,5,7,9,11,13,15,17,19,21,23,25,27,29,-1,31,-1,-1,-1,33,35,-1,37,39,41,43,45,47,-1,-1,-1,-1,-1,-1,-1,-1,-1,-1,-1,-1,-1,-1,-1,-1,-1,-1,-1,-1],"loss_changes":[2.5849768E1,3.7067451E0,8.364851E0,1.0724261E0,1.8054695E0,7.07969E0,1.7832556E0,4.3790913E-1,1.785183E-2,9.345951E-1,3.3649307E-1,4.312967E0,8.114307E0,7.9018974E-1,3.8911334E-1,0E0,1.6425604E-1,0E0,0E0,0E0,1.7139816E-1,4.2592287E-3,0E0,5.527664E0,2.40592E-1,4.7693834E0,3.8310843E0,8.291197E-2,4.8375654E-1,0E0,0E0,0E0,0E0,0E0,0E0,0E0,0E0,0E0,0E0,0E0,0E0,0E0,0E0,0E0,0E0,0E0,0E0,0E0,0E0],"parents":[2147483647,0,0,1,1,2,2,3,3,4,4,5,5,6,6,7,7,8,8,9,9,10,10,11,11,12,12,13,13,14,14,16,16,20,20,21,21,23,23,24,24,25,25,26,26,27,27,28,28],"right_children":[2,4,6,8,10,12,14,16,18,20,22,24,26,28,30,-1,32,-1,-1,-1,34,36,-1,38,40,42,44,46,48,-1,-1,-1,-1,-1,-1,-1,-1,-1,-1,-1,-1,-1,-1,-1,-1,-1,-1,-1,-1],"split_conditions":[9.055162E2,-7.3155556E0,-4.435193E0,-8.325E0,-1.005824E0,-1.3018407E1,-1.5789066E-2,8.8E1,4.6E1,8.605421E0,1.6416273E0,-6.946217E-2,1.1592051E3,-3.9968233E0,4.7E1,-1.6951356E-3,6.885333E2,1.9334978E-3,2.7158093E-3,2.2988287E-3,8.445151E1,1.27E2,1.6489888E-4,-2.605162E-1,4.6E1,-7.373742E0,2.19E2,3.27E2,7.8E1,3.7139852E-3,3.9436744E-4,1.165477E-3,2.7839403E-4,3.268831E-3,4.15692E-3,1.4560254E-3,1.7321812E-3,-1.0176209E-3,8.489541E-4,-4.3373825E-3,-2.1135574E-3,9.159668E-5,-1.3535845E-3,-5.656579E-5,1.0360667E-3,-3.1169688E-3,-2.4678593E-3,3.2936985E-4,-1.724636E-3],"split_indices":[5,11,24,16,27,11,32,0,0,37,3,28,5,18,0,0,5,0,0,0,1,0,0,28,0,16,0,0,0,0,0,0,0,0,0,0,0,0,0,0,0,0,0,0,0,0,0,0,0],"split_type":[0,0,0,0,0,0,0,0,0,0,0,0,0,0,0,0,0,0,0,0,0,0,0,0,0,0,0,0,0,0,0,0,0,0,0,0,0,0,0,0,0,0,0,0,0,0,0,0,0],"sum_hessian":[3.78E4,4.775E3,3.3025E4,1.279E3,3.496E3,3.0109E4,2.916E3,1.045E3,2.34E2,2.886E3,6.1E2,8.659E3,2.145E4,2.771E3,1.45E2,8.7E1,9.58E2,4.5E1,1.89E2,1.196E3,1.69E3,4.02E2,2.08E2,6.98E3,1.679E3,8.415E3,1.3035E4,8.18E2,1.953E3,4.6E1,9.9E1,2.56E2,7.02E2,1.445E3,2.45E2,1.23E2,2.79E2,4.979E3,2.001E3,4.5E1,1.634E3,4.849E3,3.566E3,4.319E3,8.716E3,3.17E2,5.01E2,1.09E2,1.844E3],"tree_param":{"num_deleted":"0","num_feature":"46","num_nodes":"49","size_leaf_vector":"1"}},{"base_weights":[1.3854958E-3,6.5629944E-2,-9.321615E-3,1.204267E-2,9.5282234E-2,-2.6774282E-2,1.16927745E-2,-4.9264524E-3,5.957316E-2,6.6127054E-2,1.1053539E-1,-4.969253E-2,-1.0902901E-2,3.7163203E-3,5.9714697E-2,1.6477799E-2,-1.4838596E-2,8.325332E-2,1.1306487E-3,5.3406693E-2,2.1840825E-3,6.194673E-2,1.1499395E-1,-5.671162E-2,1.6762492E-3,1.3348652E-2,-2.6483564E-2,2.2672314E-2,-1.4214312E-2,-4.053054E-2,7.093625E-2,3.8617293E-4,5.626712E-4,-1.6448597E-3,-3.2101394E-4,1.8767541E-3,2.6347642E-3,1.412697E-3,1.6804016E-3,3.3088165E-4,2.3367761E-3,3.7885804E-3,3.259867E-3,-1.5302576E-3,-2.922472E-3,-2.6878437E-3,6.9377484E-4,2.9788367E-3,9.5127296E-5,5.0070387E-4,-1.1811325E-3,8.41301E-4,-1.9123917E-3,-6.265194E-4,3.4698716E-3,-1.5416136E-3,1.661259E-4,1.6822242E-3,3.5894166E-3],"categories":[],"categories_nodes":[],"categories_segments":[],"categories_sizes":[],"default_left":[0,0,0,0,0,0,0,0,0,0,0,0,0,0,0,0,0,0,0,0,0,0,0,0,0,0,0,0,0,0,0,0,0,0,0,0,0,0,0,0,0,0,0,0,0,0,0,0,0,0,0,0,0,0,0,0,0,0,0],"id":26,"left_children":[1,3,5,7,9,11,13,15,17,19,21,23,25,27,29,31,33,35,-1,37,-1,39,41,43,45,47,49,51,53,55,57,-1,-1,-1,-1,-1,-1,-1,-1,-1,-1,-1,-1,-1,-1,-1,-1,-1,-1,-1,-1,-1,-1,-1,-1,-1,-1,-1,-1],"loss_changes":[2.5207699E1,8.317192E0,1.1520522E1,1.505317E0,1.4913559E0,6.241308E0,5.45893E0,2.9217947E-1,2.513168E-1,9.461594E-2,4.7185707E-1,2.5316029E0,3.8318057E0,4.154834E0,2.2864375E0,3.3393055E-3,1.551339E-1,1.6741395E-2,0E0,3.9982796E-3,0E0,1.5178156E-1,1.3098907E-1,1.4289379E0,1.6563501E0,3.46976E0,3.4358826E0,2.7598228E0,5.4441E0,1.028136E-1,1.3152189E0,0E0,0E0,0E0,0E0,0E0,0E0,0E0,0E0,0E0,0E0,0E0,0E0,0E0,0E0,0E0,0E0,0E0,0E0,0E0,0E0,0E0,0E0,0E0,0E0,0E0,0E0,0E0,0E0],"parents":[2147483647,0,0,1,1,2,2,3,3,4,4,5,5,6,6,7,7,8,8,9,9,10,10,11,11,12,12,13,13,14,14,15,15,16,16,17,17,19,19,21,21,22,22,23,23,24,24,25,25,26,26,27,27,28,28,29,29,30,30],"right_children":[2,4,6,8,10,12,14,16,18,20,22,24,26,28,30,32,34,36,-1,38,-1,40,42,44,46,48,50,52,54,56,58,-1,-1,-1,-1,-1,-1,-1,-1,-1,-1,-1,-1,-1,-1,-1,-1,-1,-1,-1,-1,-1,-1,-1,-1,-1,-1,-1,-1],"split_conditions":[9.055162E2,-7.3155556E0,9.456488E1,1.737461E0,8.767444E0,1.7844944E1,-1.1722223E0,8.3722955E2,1.98E2,2.8E2,1.43E2,-4.051616E0,1.6257143E0,1.7547023E0,-4.4195622E-1,1.74E2,8.8E1,4.6E1,1.1306487E-3,1.27E2,2.1840825E-3,4.6E1,-4.8296704E0,3.6266246E0,8.272254E1,9.54939E0,-1.2079274E-1,1.66683E-1,1.463919E-1,-3.886474E0,2.7797833E-1,3.8617293E-4,5.626712E-4,-1.6448597E-3,-3.2101394E-4,1.8767541E-3,2.6347642E-3,1.412697E-3,1.6804016E-3,3.3088165E-4,2.3367761E-3,3.7885804E-3,3.259867E-3,-1.5302576E-3,-2.922472E-3,-2.6878437E-3,6.9377484E-4,2.9788367E-3,9.5127296E-5,5.0070387E-4,-1.1811325E-3,8.41301E-4,-1.9123917E-3,-6.265194E-4,3.4698716E-3,-1.5416136E-3,1.661259E-4,1.6822242E-3,3.5894166E-3],"split_indices":[5,11,15,12,37,34,6,5,0,0,0,2,9,9,28,0,0,0,0,0,0,0,2,25,1,37,31,31,31,2,35,0,0,0,0,0,0,0,0,0,0,0,0,0,0,0,0,0,0,0,0,0,0,0,0,0,0,0,0],"split_type":[0,0,0,0,0,0,0,0,0,0,0,0,0,0,0,0,0,0,0,0,0,0,0,0,0,0,0,0,0,0,0,0,0,0,0,0,0,0,0,0,0,0,0,0,0,0,0,0,0,0,0,0,0,0,0,0,0,0,0],"sum_hessian":[3.6644E4,5.234E3,3.141E4,1.865E3,3.369E3,1.7159E4,1.4251E4,1.375E3,4.9E2,1.159E3,2.21E3,7.02E3,1.0139E4,1.2222E4,2.029E3,4.35E2,9.4E2,2.34E2,2.56E2,4.02E2,7.57E2,1.87E2,2.023E3,6.176E3,8.44E2,3.966E3,6.173E3,5.941E3,6.281E3,2.04E2,1.825E3,1.71E2,2.64E2,8.7E1,8.53E2,4.5E1,1.89E2,1.23E2,2.79E2,4.5E1,1.42E2,7.2E2,1.303E3,5.419E3,7.57E2,1.6E2,6.84E2,4.19E2,3.547E3,1.419E3,4.754E3,5.594E3,3.47E2,5.975E3,3.06E2,1.65E2,3.9E1,1.4E3,4.25E2],"tree_param":{"num_deleted":"0","num_feature":"46","num_nodes":"59","size_leaf_vector":"1"}},{"base_weights":[-1.2647691E-3,7.740643E-2,-1.0305598E-2,1.1134577E-1,5.9410356E-2,9.788693E-3,-3.1343944E-2,3.4549206E-3,3.1333747E-3,6.71185E-2,4.184016E-2,1.2925759E-1,7.2276387E-3,3.37918E-2,-3.765885E-2,7.043402E-2,1.3039266E-3,1.1847597E-3,1.2837867E-3,3.0910883E-3,4.028107E-3,-6.878938E-2,1.0080684E-2,1.5067603E-2,9.9961706E-2,-4.767373E-2,-4.321517E-3,2.1766336E-3,1.8177376E-3,-3.7401575E-3,-3.752934E-4,5.931976E-4,-3.19102E-4,-2.4072784E-3,6.872376E-4,1.8216757E-3,3.1783292E-3,4.5441873E-3,-1.4619663E-3,-1.0580309E-3,1.8150036E-3],"categories":[],"categories_nodes":[],"categories_segments":[],"categories_sizes":[],"default_left":[0,0,0,0,0,0,0,0,0,0,0,0,0,0,0,0,0,0,0,0,0,0,0,0,0,0,0,0,0,0,0,0,0,0,0,0,0,0,0,0,0],"id":27,"left_children":[1,3,5,7,9,11,13,-1,-1,15,17,19,21,23,25,27,-1,-1,-1,-1,-1,29,31,33,35,37,39,-1,-1,-1,-1,-1,-1,-1,-1,-1,-1,-1,-1,-1,-1],"loss_changes":[2.748432E1,2.4260998E0,1.4652424E1,2.4301529E-2,3.4999657E-1,5.4232373E0,6.965843E0,0E0,0E0,1.3881207E-1,9.3221664E-5,3.505993E-2,3.76508E0,1.8532443E0,5.1534023E0,2.868414E-2,0E0,0E0,0E0,0E0,0E0,1.97353E0,3.359678E0,8.7464046E-1,7.103491E-2,2.5094967E0,7.157471E0,0E0,0E0,0E0,0E0,0E0,0E0,0E0,0E0,0E0,0E0,0E0,0E0,0E0,0E0],"parents":[2147483647,0,0,1,1,2,2,3,3,4,4,5,5,6,6,9,9,10,10,11,11,12,12,13,13,14,14,15,15,21,21,22,22,23,23,24,24,25,25,26,26],"right_children":[2,4,6,8,10,12,14,-1,-1,16,18,20,22,24,26,28,-1,-1,-1,-1,-1,30,32,34,36,38,40,-1,-1,-1,-1,-1,-1,-1,-1,-1,-1,-1,-1,-1,-1],"split_conditions":[-1.1306199E1,8.182802E1,-1.1923826E1,4.79E2,-9.487598E0,-4.0436473E0,-1.1778674E3,3.4549206E-3,3.1333747E-3,8.4583336E1,2.43E2,8.258366E1,5.8225694E0,2.7680892E-1,6.662449E0,-3.8508275E0,1.3039266E-3,1.1847597E-3,1.2837867E-3,3.0910883E-3,4.028107E-3,3.3449477E-1,1.7643011E0,4.602979E-1,4.6E1,3.2E1,2.39E2,2.1766336E-3,1.8177376E-3,-3.7401575E-3,-3.752934E-4,5.931976E-4,-3.19102E-4,-2.4072784E-3,6.872376E-4,1.8216757E-3,3.1783292E-3,4.5441873E-3,-1.4619663E-3,-1.0580309E-3,1.8150036E-3],"split_indices":[24,1,26,0,26,18,30,0,0,1,0,1,4,10,4,2,0,0,0,0,0,14,9,3,0,0,0,0,0,0,0,0,0,0,0,0,0,0,0,0,0],"split_type":[0,0,0,0,0,0,0,0,0,0,0,0,0,0,0,0,0,0,0,0,0,0,0,0,0,0,0,0,0,0,0,0,0,0,0,0,0,0,0,0,0],"sum_hessian":[3.864E4,3.982E3,3.4658E4,1.378E3,2.604E3,1.7727E4,1.6931E4,8.77E2,5.01E2,1.808E3,7.96E2,3.71E2,1.7356E4,1.496E3,1.5435E4,1.584E3,2.24E2,2.42E2,5.54E2,6.3E1,3.08E2,6.27E2,1.6729E4,1.167E3,3.29E2,1.1869E4,3.566E3,1.298E3,2.86E2,3.14E2,3.13E2,1.1397E4,5.332E3,8.8E1,1.079E3,4.5E1,2.84E2,6.2E1,1.1807E4,2.414E3,1.152E3],"tree_param":{"num_deleted":"0","num_feature":"46","num_nodes":"41","size_leaf_vector":"1"}},{"base_weights":[1.7272424E-3,-9.343021E-3,4.1995086E-2,2.1959187E-3,-4.4247877E-2,5.802938E-2,-4.1536193E-2,-3.0515606E-3,5.068758E-2,-4.9668994E-2,3.6296308E-2,-3.802048E-2,6.648613E-2,-1.3883091E-2,-1.0340571E-1,1.4278246E-2,-2.2328723E-2,-6.8111187E-3,6.733851E-2,4.094537E-2,-5.349854E-2,1.161928E-2,1.6770288E-3,-1.91568E-2,-2.5641234E-3,5.6889486E-2,9.954391E-2,-5.203467E-2,7.0884638E-3,-7.396191E-2,-1.399685E-1,-6.322387E-4,7.1302336E-4,-6.356125E-3,-6.3101447E-4,1.4307545E-4,-8.937995E-4,1.7959591E-3,3.3819305E-3,8.668818E-4,1.3838551E-3,-1.7373338E-3,-3.669173E-4,6.95254E-4,1.6908036E-4,3.2681384E-4,-8.6553866E-4,1.5225069E-3,3.6603985E-3,2.249492E-3,3.064829E-3,-2.2339108E-3,-1.250221E-3,3.754882E-4,-1.0692014E-3,-1.6440002E-3,-2.4883775E-3,-5.264518E-3,-3.957312E-3],"categories":[],"categories_nodes":[],"categories_segments":[],"categories_sizes":[],"default_left":[0,0,0,0,0,0,0,0,0,0,0,0,0,0,0,0,0,0,0,0,0,0,0,0,0,0,0,0,0,0,0,0,0,0,0,0,0,0,0,0,0,0,0,0,0,0,0,0,0,0,0,0,0,0,0,0,0,0,0],"id":28,"left_children":[1,3,5,7,9,11,13,15,17,19,21,23,25,27,29,31,33,35,37,39,41,43,-1,45,-1,47,49,51,53,55,57,-1,-1,-1,-1,-1,-1,-1,-1,-1,-1,-1,-1,-1,-1,-1,-1,-1,-1,-1,-1,-1,-1,-1,-1,-1,-1,-1,-1],"loss_changes":[1.7245222E1,1.22216E1,1.1175395E1,5.803346E0,3.2936277E0,5.687601E0,2.2979922E0,6.8754697E0,2.1326041E0,2.4534836E0,2.2963196E-1,5.0587714E-1,2.035162E0,7.4445987E-1,4.364152E-1,3.636329E0,2.3868594E0,1.3347861E-1,5.790973E-1,1.6591161E-2,1.2335548E0,1.452744E-2,0E0,1.18883625E-1,0E0,1.9880695E0,8.528423E-2,7.3581874E-2,1.3983133E-1,3.5393476E-2,2.9510021E-2,0E0,0E0,0E0,0E0,0E0,0E0,0E0,0E0,0E0,0E0,0E0,0E0,0E0,0E0,0E0,0E0,0E0,0E0,0E0,0E0,0E0,0E0,0E0,0E0,0E0,0E0,0E0,0E0],"parents":[2147483647,0,0,1,1,2,2,3,3,4,4,5,5,6,6,7,7,8,8,9,9,10,10,11,11,12,12,13,13,14,14,15,15,16,16,17,17,18,18,19,19,20,20,21,21,23,23,25,25,26,26,27,27,28,28,29,29,30,30],"right_children":[2,4,6,8,10,12,14,16,18,20,22,24,26,28,30,32,34,36,38,40,42,44,-1,46,-1,48,50,52,54,56,58,-1,-1,-1,-1,-1,-1,-1,-1,-1,-1,-1,-1,-1,-1,-1,-1,-1,-1,-1,-1,-1,-1,-1,-1,-1,-1,-1,-1],"split_conditions":[-8.123219E0,-9.311217E0,1.9515069E0,-5.489437E0,9.03E1,9.078006E1,4.1768292E-1,1.7643011E0,7.4077187E0,3.617397E0,1.41E2,1.528E1,3.4036568E-1,1.6353333E1,7.04375E0,2.654971E-1,5.6363635E0,8.628113E1,6.4200797E0,8.9E1,1.9177794E1,7.3E1,1.6770288E-3,3.8E1,-2.5641234E-3,9.7758575E1,1.43E2,8.0611176E1,8.734153E1,4.4E1,3.1E1,-6.322387E-4,7.1302336E-4,-6.356125E-3,-6.3101447E-4,1.4307545E-4,-8.937995E-4,1.7959591E-3,3.3819305E-3,8.668818E-4,1.3838551E-3,-1.7373338E-3,-3.669173E-4,6.95254E-4,1.6908036E-4,3.2681384E-4,-8.6553866E-4,1.5225069E-3,3.6603985E-3,2.249492E-3,3.064829E-3,-2.2339108E-3,-1.250221E-3,3.754882E-4,-1.0692014E-3,-1.6440002E-3,-2.4883775E-3,-5.264518E-3,-3.957312E-3],"split_indices":[11,26,9,16,1,15,14,9,37,33,0,16,10,17,4,14,4,1,7,0,34,0,0,0,0,15,0,1,1,0,0,0,0,0,0,0,0,0,0,0,0,0,0,0,0,0,0,0,0,0,0,0,0,0,0,0,0,0,0],"split_type":[0,0,0,0,0,0,0,0,0,0,0,0,0,0,0,0,0,0,0,0,0,0,0,0,0,0,0,0,0,0,0,0,0,0,0,0,0,0,0,0,0,0,0,0,0,0,0,0,0,0,0,0,0,0,0,0,0,0,0],"sum_hessian":[3.8684E4,3.0343E4,8.341E3,2.2805E4,7.538E3,6.998E3,1.343E3,2.0579E4,2.226E3,7.063E3,4.75E2,5.66E2,6.432E3,9.29E2,4.14E2,1.0837E4,9.742E3,5E2,1.726E3,2.86E2,6.777E3,2.11E2,2.64E2,4.06E2,1.6E2,4.987E3,1.445E3,3.29E2,6E2,2.31E2,1.83E2,2.293E3,8.544E3,6.5E1,9.677E3,3.33E2,1.67E2,1.484E3,2.42E2,8.8E1,1.98E2,6.122E3,6.55E2,7.1E1,1.4E2,9.9E1,3.07E2,4.559E3,4.28E2,1.42E2,1.303E3,1.02E2,2.27E2,5.33E2,6.7E1,